tree
version=v4
num_class=1
num_tree_per_iteration=1
label_index=0
max_feature_idx=25
objective=regression_l1
feature_names=year fossil_twh renewables_twh nuclear_twh energy_use_per_capita total_twh renewable_share_percentage sum_bioenergy sum_coal sum_geothermal sum_hydropower sum_nuclear sum_oil/gas sum_solar sum_wind count_bioenergy count_coal count_geothermal count_hydropower count_nuclear count_oil/gas count_solar count_wind carbon_intensity_lag1 renewable_share_lag1 renewable_share_roll3
feature_infos=[2002:2022] [0:587.29999999999995] [0:251.53999999999999] [0:450.19] [101.88125599999999:219715.35999999999] [0.01:891.27999999999997] [0:100] [0:5318.4499999999998] [0:245082.70000000001] [0:2431.9000000000001] [0:51941] [0:65690] [0:112213.60000000001] [0:75510.899999999994] [0:48171] [0:136] [0:850] [0:50] [0:175] [0:57] [0:721] [0:6569] [0:2078] [0:1306.7228] [0:100] [0:100]
tree_sizes=2368 2465 2529 2468 2687 2720 2703 2726 2710 2707 2705 2696 2704 2690 2710 2726 2721 2724 2727 2738 2711 2727 2733 2737 2737 2739 2741 2736 2746 2743 2727 2733 2745 2747 2737 2750 2738 2760 2761 2759 2758 2736 2743 2738 2747 2749 2757 2753 2755 2766 2753 2740 2768 2772 2777 2771 2757 2744 2760 2770 2778 2801 2768 2774 2794 2786 2790 2787 2783 2780 2774 2778 2803 2785 2800 2799 2786 2770 2777 2771 2772 2811 2757 2788 2802 2768 2812 2792 2806 2787 2803 2782 2800 2782 2785 2795 2782 2810 2784 2776 2822 2789 2795 2808 2794 2779 2808 2790 2817 2813 2807 2828 2812 2782 2788 2795 2816 2778 2773 2825 2809 2788 2792 2778 2820 2805 2843 2790 2805 2810 2799 2801 2799 2807 2818 2795 2798 2822 2804 2834 2802 2791 2770 2792 2756 2787 2785 2783 2781 2784 2770 2805 2781 2788 2781 2775 2776 2776 2789 2784 2776 2790 2781 2776 2766 2781 2793 2730 2801 2789 2816 2788 2783 2765 2786 2794 2772 2763 2813 2780 2814 2805 2791 2780 2773 2777 2774 2807 2781 2790 2795 2760 2788 2777 2762 2770 2788 2801 2791 2771 2778 2782 2762 2806 2764 2796 2798 2781 2808 2777 2793 2786 2775 2760 2792 2774 2780 2791 2818 2784 2794 2810 2806 2810 2793 2823 2812 2794 2807 2805 2776 2795 2773 2797 2805 2813 2789 2790 2782 2804 2765 2801 2783 2821 2816 2813 2806 2786 2790 2790 2803 2762 2792 2783 2794 2784 2810 2764 2804 2772 2796 2765 2800 2776 2768 2810 2793 2809 2775 2810 2792 2773 2799 2802 2785 2805 2818 2784 2786 2779 2798 2816 2795 2777 2806 2807 2817 2764 2823 2762 2785 2786 2792 2799 2804 2788 2770 2805 2761 2797 2793 2808 2801 2783 2791 2774 2788 2788 2762 2802 2795 2792 2787 2782 2792 2790 2742 2758 2774 2781 2774 2771 2775 2810 2758 2806 2772 2773 2790 2779 2798 2794 2792 2789 2814 2822 2798 2829 2787 2850 2842 2806 2793 2791 2780 2780 2798 2777 2807 2776 2806 2791 2770 2787 2773 2804 2783 2800 2790 2795 2764 2801 2790 2783 2815 2800 2779 2803 2797 2802 2841 2774 2806 2812 2815 2782 2783 2807 2810 2792 2801 2817 2791 2813 2768 2801 2767 2828 2809 2772 2792 2755 2826 2798 2855 2766 2779 2826 2757 2768 2797 2789 2797 2797 2774 2785 2761 2797 2787 2795 2791 2771 2780 2783 2778 2810 2776 2798 2827 2782 2825 2794 2766 2797 2828 2796 2797 2797 2804 2770 2775 2805 2802 2806 2813 2797 2817 2795 2816 2786 2789 2774 2818 2781 2790 2811 2764 2766 2784 2809 2784 2813 2813 2815 2791 2788 2808 2791 2783 2809 2794 2798 2798 2776 2801 2775 2802 2803 2785 2769 2781 2776 2840 2777 2805 2749 2816 2804 2797 2798 2795 2765 2770 2783 2773 2746 2781 2782 2808 2786 2769 2762 2742 2797 2802 2782 2813 2800 2798 2805 2806 2795 2802 2818 2769 2801 2797 2802 2779 2811 2748 2795 2791 2750 2770 2807 2782 2782 2830 2802 2784 2758 2823 2780 2786 2770 2779 2771 2825 2817 2807 2841 2852 2791 2782 2815 2801 2790 2774 2799 2814 2787 2818 2801 2793 2779 2811 2789 2783 2825 2761 2754 2818 2793 2802 2799 2793 2783 2818 2776 2777 2745 2756 2766 2794 2810 2792 2818 2785 2789 2775 2793 2774 2801 2803 2788 2832 2825 2815 2768 2800 2828 2769 2799 2802 2776 2752 2797 2824 2784 2829 2820 2815 2763 2833 2785 2752 2829 2818 2798 2814 2792 2825 2807 2812 2770 2810 2818 2826 2758 2842 2814 2792 2760 2808 2837 2791 2796 2781 2809 2776 2796 2786 2794 2808 2826 2854 2824 2812 2779 2830 2807 2828 2801 2805 2808 2830 2784 2815 2785 2808 2783 2825 2800 2790 2816 2823 2764 2825 2806 2793 2813 2794 2815 2855 2868 2823 2810 2846 2794 2809 2792 2803 2836 2802 2794 2831 2824 2809 2786 2832 2806 2807 2767 2845 2825 2785 2821 2792 2817 2790 2816 2789 2809 2820 2808 2787 2799 2811 2786 2799 2792 2771 2776 2769 2812 2812 2814 2802 2844 2813 2755 2792 2774 2796 2783 2772 2791 2745 2813 2823 2775 2761 2789 2804 2807 2775 2826 2785 2796 2831 2828 2782 2797 2803 2771 2820 2784 2811 2790 2804 2806 2810 2817 2824 2796 2796 2767 2798 2764 2779 2788 2788 2814 2803 2793 2823 2789 2799 2774 2811 2803 2793 2768 2779 2807 2805 2783 2786 2814 2812 2803 2791 2806 2773 2788 2781 2755 2764 2834 2799 2746 2790 2781 2748 2791 2801 2773 2827 2784 2767 2808 2773 2768 2781 2822 2818 2800 2811 2824 2794 2781 2809 2810 2807 2817 2805 2835 2782 2782 2798 2785 2830 2765 2797 2771 2815 2822 2746 2770 2807 2805 2803 2800 2765 2808 2797 2821 2810 2794 2805 2765 2774 2806 2821 2817 2820 2775 2796 2814 2801 2807 2824 2813 2821 2814 2797 2818 2802 2784 2786 2791 2804 2819 2806 2818 2801 2819 2796 2817 2818 2797 2808 2823 2831 2802 2828 2808 2777 2810 2803 2824 2819 2815 2783 2783 2762 2796 2808 2799 2794 2815 2801 2801 2802 2782 2789 2771 2808 2832 2790 2803 2797 2787 2827 2766 2770 2803 2797 2831 2821 2836 2805 2811 2852 2765 2784 2801 2776 2812 2784 2821 2843 2817 2812 2798 2759 2789 2748 2804 2805 2799 2769 2810 2808 2794 2800 2797 2795 2802 2815 2815 2839 2797 2777 2810 2809 2785 2813 2784 2809 2780 2799 2827 2814 2808 2805 2788 2777 2773 2832 2821 2841 2783 2806 2763 2803 2808 2786 2783 2794 2830 2807 2807 2815 2816 2830 2805 2778 2783 2794 2798 2834 2822 2796 2810 2795 2809 2805 2814 2785 2795 2815 2781 2797 2786 2801 2828 2843 2773 2781 2827 2825 2811 2797 2820 2809 2828 2802 2809 2796 2845 2816 2820 2823 2807 2829 2836 2855

Tree=0
num_leaves=28
num_cat=0
split_feature=23 6 2 23 24 6 6 23 23 13 1 8 0 25 1 6 1 4 6 1 3 1 23 4 1 21 13
split_gain=2955.41 27.0053 46.9333 24.9054 7.42542 29.1843 5.67475 3.02891 2.4344 2.24289 1.9451 1.8568 1.15944 0.8002 0.72 0.407732 0.338476 0.419048 0.194144 0.583784 0.197072 0.141176 0.110437 0.266667 0.4 0.0114265 0.175878
threshold=528.77844000000016 20.471464019851119 0.24500000000000002 499.92756500000002 16.458144052538518 23.691511751738663 34.733618701679056 542.91176500000006 464.57918000000006 1.0000000180025095e-35 3.1450000000000005 152.50000000000003 2015.5000000000002 29.180808898254131 30.705000000000002 35.679504460394085 0.025000000000000005 27269.871000000003 16.508089683539783 1.2950000000000002 27.805000000000003 36.855000000000011 431.84799000000004 16932.182000000004 35.340000000000011 1.5000000000000002 3.1000000000000005
decision_type=2 2 2 2 2 2 2 2 2 2 2 2 2 2 2 2 2 2 2 2 2 2 2 2 2 2 2
left_child=3 7 -3 8 12 -6 11 -2 22 -10 -7 -4 14 -11 -5 -15 17 -9 20 -20 -18 -13 25 -24 -25 26 -1
right_child=1 2 6 4 5 10 -8 16 9 13 -12 21 -14 15 -16 -17 18 -19 19 -21 -22 -23 23 24 -26 -27 -28
leaf_value=507.60469360351561 525.52777099609375 523.60469360351567 525.6578079223633 523.60469360351567 525.46063232421875 523.60469360351567 526.00615692138672 548.60469360351567 522.4254501342773 522.53392486572261 523.4268676757813 531.78055419921873 523.9094589233398 522.50406494140623 524.18339691162112 521.33849792480464 531.45660095214839 548.60469360351567 525.69311370849607 529.45606231689453 528.03479766845703 527.91486968994138 520.99422988891604 520.55257949829104 520.80010833740232 509.85391616821289 499.69165010452269
leaf_weight=253 31 22 22 25 34 31 20 20 23 50 20 48 21 21 25 22 1346 22 20 54 20 20 80 20 20 987 21
leaf_count=253 31 22 22 25 34 31 20 20 23 50 20 48 21 21 25 22 1346 22 20 54 20 20 80 20 20 987 21
internal_value=524.847 524.894 524.873 524.8 524.819 524.829 524.886 524.896 524.798 524.805 524.805 524.891 524.807 524.801 524.811 524.806 524.897 524.892 524.897 524.894 524.897 524.896 524.797 524.799 524.802 524.797 524.797
internal_weight=3298 1645 132 1653 156 85 110 1513 1497 116 51 90 71 93 50 43 1482 42 1440 74 1366 68 1381 120 40 1261 274
internal_count=3298 1645 132 1653 156 85 110 1513 1497 116 51 90 71 93 50 43 1482 42 1440 74 1366 68 1381 120 40 1261 274
is_linear=0
shrinkage=1


Tree=1
num_leaves=28
num_cat=0
split_feature=23 6 24 23 23 24 6 11 23 1 6 2 4 4 23 24 4 1 4 11 6 2 23 24 6 23 24
split_gain=2917.63 26.6003 30.5788 25.6936 11.9348 8.48078 29.2473 5.18247 4.8 3.90021 3.53455 2.07241 1.2171 1.05974 0.641263 2.42892 0.620975 0.337847 0.419048 0.186057 0.172463 0.616092 0.170772 0.453686 0.172028 0.0138285 0.173309
threshold=528.77844000000016 24.966833990677667 22.318007662835253 493.68335000000008 563.74720000000013 16.458144052538518 23.691511751738663 481.50000000000006 566.82491500000015 5.8850000000000007 18.63830886278102 0.065000000000000016 60604.434000000008 44661.060500000007 467.0708600000001 38.422932636585777 29699.352500000005 0.025000000000000005 27269.871000000003 2053.5000000000005 16.508089683539783 0.49500000000000005 417.76407000000006 48.460696731604081 18.174177774643255 336.6961300000001 59.81007903356673
decision_type=2 2 2 2 2 2 2 2 2 2 2 2 2 2 2 2 2 2 2 2 2 2 2 2 2 2 2
left_child=3 4 -3 11 7 12 -7 10 -4 -8 13 -1 16 -2 22 -16 -5 18 -6 20 -19 -22 25 24 -24 -13 -27
right_child=1 2 8 5 17 6 9 -9 -10 -11 -12 14 -14 -15 15 -17 -18 19 -20 -21 21 -23 23 -25 -26 26 -28
leaf_value=-4.4547823524475092 1.6081314849853527 -1.1802346801757835 0.28382553100585994 -1.1802346801757835 22.569765319824217 0.46877136230468752 -1.3323091125488304 0.52473754882812507 4.1989057922363289 -1.302922973632815 0.59163398742675788 -17.32943058013916 -0.88849281311034933 0.61395874023437502 -2.4406168365478496 -2.3000908279418923 -0.84935386657714962 6.2843141174316433 22.569765319824217 7.223240814208987 1.1546659851074226 5.6815395355224609 -3.4194420242309578 -3.7379912185668958 -3.8274901199340832 -6.9185571670532227 -6.8280938720703119
leaf_weight=28 34 27 20 26 20 36 38 23 40 23 20 965 26 21 63 20 27 1311 22 20 20 67 20 25 123 212 21
leaf_count=28 34 27 20 26 20 36 38 23 40 23 20 965 26 21 63 20 27 1311 22 20 20 67 20 25 123 212 21
internal_value=-0.000121286 0.0470213 0.0201149 -0.0470357 0.0485237 -0.0289773 -0.0190722 0.0316327 0.04 -0.0401639 0.038 -0.0491875 -0.0411392 0.0445455 -0.0494479 -0.0451807 -0.0367925 0.0496575 0.0452381 0.0497884 0.0498569 0.0477011 -0.0497072 -0.0482143 -0.0493007 -0.0499165 -0.0495708
internal_weight=3298 1645 87 1653 1558 176 97 98 60 61 75 1477 79 55 1449 83 53 1460 42 1418 1398 87 1366 168 143 1198 233
internal_count=3298 1645 87 1653 1558 176 97 98 60 61 75 1477 79 55 1449 83 53 1460 42 1418 1398 87 1366 168 143 1198 233
is_linear=0
shrinkage=0.05


Tree=2
num_leaves=29
num_cat=0
split_feature=23 23 6 2 23 0 24 6 11 8 23 21 12 13 12 0 1 4 6 8 1 4 20 5 11 1 23 24
split_gain=2895.12 28.3016 25.7273 40.3 8.97197 8.95341 10.1532 22.8321 5.94862 5.45031 2.0331 1.69798 3.71886 1.00595 0.862876 0.833333 0.9 0.7 0.488764 1.2375 0.357822 0.419048 0.296104 1.28571 0.197006 0.106977 0.0131633 0.174015
threshold=528.77844000000016 493.68335000000008 21.32646941223511 0.24500000000000002 560.86872000000005 2017.5000000000002 16.458144052538518 24.966833990677667 481.50000000000006 175.00000000000003 417.76407000000006 3.5000000000000004 163.50000000000003 71.000000000000014 780.75000000000011 2007.5000000000002 33.470000000000006 10196.161000000002 16.508089683539783 152.50000000000003 0.025000000000000005 27269.871000000003 22.500000000000004 23.050000000000004 2053.5000000000005 3.4300000000000002 336.6961300000001 59.81007903356673
decision_type=2 2 2 2 2 2 2 2 2 2 2 2 2 2 2 2 2 2 2 2 2 2 2 2 2 2 2 2
left_child=1 10 4 -4 8 6 15 -8 13 -5 26 12 17 -2 -11 -3 -17 -12 20 -20 21 -6 23 -13 -22 -7 -1 -28
right_child=2 5 3 9 18 25 7 -9 -10 14 11 22 -14 -15 -16 16 -18 -19 19 -21 24 -23 -24 -25 -26 -27 27 -29
leaf_value=-16.431225347518922 0.96038020706176619 -0.66835010147094642 -1.1212229461669949 0.67334671783447109 21.441277053833005 -1.1136192245483414 0.55946853637695426 -1.202587120056154 0.4985006713867165 7.354279678344728 -3.2903214511871344 -2.9943986911773695 -2.9992416648864721 1.2150441341400153 1.5895902824401844 -0.9971844425201426 -0.81662974548339662 -2.6403335838317847 0.99480295181274414 5.4075165748596197 5.970098411560059 21.441277053833005 -3.2305127696990983 -3.3534014720916758 6.8620787734985358 -1.2377768249511747 -6.4532437801361091 -6.4866891784667962
leaf_weight=970 24 20 20 35 20 20 36 37 23 43 42 50 27 32 26 20 20 30 20 44 1316 22 95 20 20 23 222 21
leaf_count=970 24 20 20 35 20 20 36 37 23 43 42 50 27 32 26 20 20 30 20 44 1316 22 95 20 20 23 222 21
internal_value=-6.06428e-05 -0.0467937 0.0468997 0.025 0.0486851 -0.0278409 -0.0214286 -0.00890411 0.0322785 0.0375 -0.0490521 -0.0450758 -0.039899 0.0410714 0.0456522 -0.0366667 -0.0325 -0.0458333 0.0495839 0.0453125 0.0497823 0.0452381 -0.0481818 -0.0457143 0.0499251 -0.0476744 -0.0499176 -0.0495885
internal_weight=3298 1653 1645 124 1521 176 133 73 79 104 1477 264 99 56 69 60 40 72 1442 64 1378 42 165 70 1336 43 1213 243
internal_count=3298 1653 1645 124 1521 176 133 73 79 104 1477 264 99 56 69 60 40 72 1442 64 1378 42 165 70 1336 43 1213 243
is_linear=0
shrinkage=0.05


Tree=3
num_leaves=28
num_cat=0
split_feature=23 6 1 23 0 24 6 23 8 11 24 23 21 6 24 12 1 6 8 1 20 1 1 4 11 23 24
split_gain=2883.86 28.9972 38.9126 27.2056 8.05381 9.09626 15.9168 7.85821 7.27804 6.49292 5.65296 2.83672 2.34019 4.96061 3.12831 1.28 1.02171 0.993083 2.09655 0.700358 0.523121 1.1878 0.357822 0.419048 0.197006 0.0131633 0.174015
threshold=528.77844000000016 20.471464019851119 0.58000000000000007 499.92756500000002 2017.5000000000002 11.408912652458154 23.691511751738663 560.86872000000005 175.00000000000003 481.50000000000006 19.646601357671234 417.76407000000006 3.5000000000000004 27.28322230691899 43.198517142139202 780.75000000000011 1.4450000000000001 16.508089683539783 152.50000000000003 30.705000000000002 22.500000000000004 5.8850000000000007 0.025000000000000005 27269.871000000003 2053.5000000000005 336.6961300000001 59.81007903356673
decision_type=2 2 2 2 2 2 2 2 2 2 2 2 2 2 2 2 2 2 2 2 2 2 2 2 2 2 2
left_child=3 7 -3 11 5 19 10 9 -4 16 -7 25 13 -13 -15 -10 -2 22 -19 -5 21 -14 23 -9 -24 -1 -27
right_child=1 2 8 4 -6 6 -8 17 15 -11 -12 12 20 14 -16 -17 -18 18 -20 -21 -22 -23 24 -25 -26 26 -28
leaf_value=-15.609664080142975 1.3519626332282997 -1.0651617988586453 0.61442880592346116 -1.0713637240409868 -1.0579382633209264 -0.048417051696776528 -1.0534898685455347 20.369213201141356 6.9865656944274921 0.47357563781737899 0.70852300262451429 -0.66245630426407165 -3.1879127446651467 -3.2294710547447183 -3.0839141126632685 2.0486067037582387 0.96507417125701522 0.94506280422210698 5.1371407461166374 -0.65862607221603187 -2.9768708468437186 -2.428108690166471 5.6715934909820591 20.369213201141356 6.5189748348236094 -6.1305815911293031 -6.1623547195434556
leaf_weight=970 25 20 37 23 37 21 34 20 45 23 20 21 42 59 23 30 29 20 38 21 108 31 1316 22 20 222 21
leaf_count=970 25 20 37 23 37 21 34 20 45 23 20 21 42 59 23 30 29 20 38 21 108 31 1316 22 20 222 21
internal_value=-0.000151607 0.0467173 0.0242424 -0.0467937 -0.0269231 -0.0205882 -0.01 0.0486781 0.0357143 0.0331169 0.0109756 -0.0488644 -0.0443662 -0.0383495 -0.0439024 0.0446667 0.0425926 0.0495125 0.0431034 -0.0386364 -0.0477901 -0.0445205 0.0497823 0.0452381 0.0499251 -0.0499176 -0.0495885
internal_weight=3298 1645 132 1653 156 119 75 1513 112 77 41 1497 284 103 82 75 54 1436 58 44 181 73 1378 42 1336 1213 243
internal_count=3298 1645 132 1653 156 119 75 1513 112 77 41 1497 284 103 82 75 54 1436 58 44 181 73 1378 42 1336 1213 243
is_linear=0
shrinkage=0.05


Tree=4
num_leaves=31
num_cat=0
split_feature=23 6 2 23 0 24 6 23 23 12 11 4 23 21 12 6 13 6 8 1 24 3 1 4 16 23 24 2 4 1
split_gain=2842.89 34.8994 35.4551 28.7355 9.47375 9.57898 16.8333 8.82874 8.26465 7.35636 5.94862 4.02381 2.68016 2.30473 4.36066 1.00921 1.00595 0.868913 2.2 0.782609 0.53608 0.498759 0.369083 0.419048 0.30636 0.141833 0.979636 0.160445 0.125926 0.116667
threshold=528.77844000000016 21.32646941223511 0.24500000000000002 493.68335000000008 2017.5000000000002 8.4110871723780161 24.966833990677667 560.86872000000005 599.8108850000001 5020.9500000000007 481.50000000000006 16932.182000000004 414.69394000000005 3.5000000000000004 163.50000000000003 28.989388700787643 71.000000000000014 16.508089683539783 152.50000000000003 30.705000000000002 44.416745436157932 15.775 0.025000000000000005 27269.871000000003 26.500000000000004 301.17620000000005 59.81007903356673 0.115 14423.407500000003 5.1550000000000011
decision_type=2 2 2 2 2 2 2 2 2 2 2 2 2 2 2 2 2 2 2 2 2 2 2 2 2 2 2 2 2 2
left_child=3 7 -3 12 5 19 9 10 11 -7 16 -4 25 14 15 -14 -2 21 -19 -5 24 22 23 -9 -15 -1 27 -27 -17 -10
right_child=1 2 8 4 -6 6 -8 17 29 -11 -12 -13 13 20 -16 28 -18 18 -20 -21 -22 -23 -24 -25 -26 26 -28 -29 -30 -31
leaf_value=-15.663318601965905 0.85443527659654428 -1.0119037089157132 1.4076804331302641 -1.0177955378389356 -1.0424704311180109 0.84792137641907184 -1.0897832706260715 19.350752541084287 3.6982845498275796 -0.41724533654451079 0.44989685592651085 0.033205675349236685 -1.233990959706307 -2.9937793291521078 -2.6657400737428691 -3.2555706282305765 1.1060382188701625 0.89780966401100393 4.8802837088108051 -0.65266047247409353 -3.3311494098651426 5.0136208492088317 5.4075832134056103 19.350752541084287 -2.8523963278245961 -5.073132406592368 -6.0053107894659039 -6.6621277679204924 -3.2218520665788706 7.3673114529800445
leaf_weight=873 24 20 32 23 43 28 37 20 20 22 23 24 20 115 28 34 32 20 44 23 20 30 1306 22 39 23 31 274 20 28
leaf_count=873 24 20 32 23 43 28 37 20 20 22 23 24 20 115 28 34 32 20 44 23 20 30 1306 22 39 23 31 274 20 28
internal_value=-6.06428e-05 0.0464742 0.0209677 -0.0463702 -0.0272727 -0.0206767 -0.0109195 0.0485536 0.0326923 0.008 0.0322785 0.0196429 -0.0486459 -0.0442029 -0.0382353 -0.0445946 0.0410714 0.0494452 0.04375 -0.0391304 -0.0477011 0.0497097 0.0498516 0.0452381 -0.0487013 -0.0496669 -0.0487805 -0.0496633 -0.0481481 0.0479167
internal_weight=3298 1645 124 1653 176 133 87 1521 104 50 79 56 1477 276 102 74 56 1442 64 46 174 1378 1348 42 154 1201 328 297 54 48
internal_count=3298 1645 124 1653 176 133 87 1521 104 50 79 56 1477 276 102 74 56 1442 64 46 174 1378 1348 42 154 1201 328 297 54 48
is_linear=0
shrinkage=0.05


Tree=5
num_leaves=31
num_cat=0
split_feature=23 6 1 23 24 6 23 3 23 24 1 23 21 12 4 6 24 4 6 24 23 1 4 24 16 6 1 20 23 24
split_gain=2824.32 33.7901 36.208 30.2836 9.94318 33.417 8.78407 7.91012 11.408 5.55789 5.30862 2.68016 2.30473 4.36066 1.58968 1.29095 1.71163 1.11853 1.00921 0.53608 0.367058 0.367427 0.419048 0.324881 0.30636 0.215328 0.409756 0.160847 0.141833 0.979636
threshold=528.77844000000016 20.471464019851119 0.58000000000000007 493.68335000000008 16.458144052538518 23.691511751738663 599.8108850000001 3.5250000000000004 607.80653000000018 24.169696474529193 5.8850000000000007 414.69394000000005 3.5000000000000004 163.50000000000003 60604.434000000008 18.174177774643255 17.179608585858592 29699.352500000005 28.989388700787643 44.416745436157932 600.23360000000014 0.025000000000000005 27269.871000000003 16.205555289671782 26.500000000000004 13.769314195431541 0.94500000000000006 64.000000000000014 301.17620000000005 59.81007903356673
decision_type=2 2 2 2 2 2 2 2 2 2 2 2 2 2 2 2 2 2 2 2 2 2 2 2 2 2 2 2 2 2
left_child=3 7 -3 11 14 -6 9 15 -9 -4 -7 28 13 18 17 20 -17 -5 -13 24 23 22 -22 25 -14 27 -27 -2 -1 -30
right_child=1 2 6 4 5 10 -8 8 -10 -11 -12 12 19 -15 -16 16 -18 -19 -20 -21 21 -23 -24 -25 -26 26 -28 -29 29 -31
leaf_value=-14.880152671867609 1.5416535156259557 -0.96130852346992701 -0.0044990812767736086 -0.96690576094698599 0.42171898542464137 -1.0984006439600023 6.1860655519874115 0.33980443317413461 5.92330025749302 1.2241508007931714 -1.1084702053827074 -1.1722914117209939 -2.8440903626945016 -2.5324530700557251 -0.70060036697935857 0.38875108451980794 3.5157272443175374 -0.70049035873961429 -3.0927920968190463 -3.1645919393718858 18.383214914030074 5.4175003784189251 18.383214914030074 1.6837167541937248 -2.709776511433367 0.83191688232517436 0.76572055702304742 1.4717179077157994 -6.2510535450518123 -5.7050452499926081
leaf_weight=873 114 20 22 26 36 38 52 38 47 38 23 20 115 28 26 20 23 27 54 20 20 1141 22 26 39 21 20 21 297 31
leaf_count=873 114 20 22 26 36 38 52 38 47 38 23 20 115 28 26 20 23 27 54 20 20 1141 22 26 39 21 20 21 297 31
internal_value=-0.000151607 0.046231 0.0219697 -0.0463097 -0.0267045 -0.0159794 0.0330357 0.0483477 0.0335294 0.02 -0.0385246 -0.0486459 -0.0442029 -0.0382353 -0.0398734 0.0492297 0.0406977 -0.0349057 -0.0445946 -0.0477011 0.0494946 0.0498309 0.0452381 0.0475248 -0.0487013 0.0482955 0.045122 0.0492593 -0.0496669 -0.0487805
internal_weight=3298 1645 132 1653 176 97 112 1513 85 60 61 1477 276 102 79 1428 43 53 74 174 1385 1183 42 202 154 176 41 135 1201 328
internal_count=3298 1645 132 1653 176 97 112 1513 85 60 61 1477 276 102 79 1428 43 53 74 174 1385 1183 42 202 154 176 41 135 1201 328
is_linear=0
shrinkage=0.05


Tree=6
num_leaves=31
num_cat=0
split_feature=23 6 23 24 23 23 0 24 6 12 11 6 23 23 24 6 6 5 6 24 4 1 4 4 23 4 1 4 23 24
split_gain=2783.72 39.0183 31.2997 26.3195 13.6035 12.0333 8.40148 10.3755 18.3809 5.72727 4.21376 4.5103 3.34628 2.8758 2.65277 11.0984 2.39931 6.42069 2.13652 7.47992 1.88398 0.782609 0.427907 0.413547 0.343824 0.438009 0.355238 0.419048 0.221614 1.59108
threshold=528.77844000000016 24.966833990677667 493.68335000000008 22.318007662835253 563.74720000000013 566.82491500000015 2017.5000000000002 8.4110871723780161 24.966833990677667 5020.9500000000007 481.50000000000006 18.63830886278102 414.69394000000005 595.2235300000001 38.422932636585777 41.123949579831937 23.691511751738663 43.250000000000007 11.157662042252186 12.462563361176558 44661.060500000007 30.705000000000002 21033.617000000002 10196.161000000002 607.80653000000018 51596.266500000005 0.025000000000000005 27269.871000000003 301.17620000000005 59.266280107047287
decision_type=2 2 2 2 2 2 2 2 2 2 2 2 2 2 2 2 2 2 2 2 2 2 2 2 2 2 2 2 2 2
left_child=2 4 12 -3 10 -5 7 21 9 -9 11 20 28 18 16 -16 17 -14 -6 -20 -2 -4 -8 -21 25 -15 27 -26 -1 -30
right_child=1 3 6 5 13 -7 22 8 -10 -11 -12 -13 14 24 15 -17 -18 -19 19 23 -22 -23 -24 -25 26 -27 -28 -29 29 -31
leaf_value=-14.136145038274229 1.2091674335901985 -0.91324309729643005 -0.9185604728996396 0.038530380180600336 1.049725563965751 3.2000962595489457 -1.0690988472442597 0.78443935832688683 -0.98037407489676986 -0.38941378538441146 0.41041179147148343 0.19608885342664167 -1.5231973257839799 2.1834078149423135 -0.53928672976887249 -3.5155375870467283 -2.6926848867015991 -2.2892843903709532 0.36691804702514336 0.79032103820891286 0.34187030122799911 -0.58500293091341293 -0.89799779640098343 1.3411438464269168 17.46405416832857 2.1237097100839151 5.3229467706307902 17.46405416832857 -5.9662184581312516 -5.3050675435623518
leaf_weight=873 34 27 23 20 65 40 20 28 37 22 23 20 20 65 23 53 142 38 20 29 21 23 23 22 20 20 1197 22 294 34
leaf_count=873 34 27 23 20 65 40 20 28 37 22 23 20 20 65 23 53 142 38 20 29 21 23 23 22 20 20 1197 22 294 34
internal_value=-0.000242571 0.0458055 -0.0460678 0.0132184 0.0476252 0.0316667 -0.0261364 -0.0199248 -0.00977011 0.01 0.0295918 0.0353333 -0.0484428 0.0488356 -0.0434783 -0.0355263 -0.0465 -0.037931 0.0419118 0.0359155 0.0427273 -0.0391304 -0.0453488 0.0460784 0.0495468 0.0464706 0.0497579 0.0452381 -0.0495837 -0.0484756
internal_weight=3298 1645 1653 87 1558 60 176 133 87 50 98 75 1477 1460 276 76 200 58 136 71 55 46 43 51 1324 85 1239 42 1201 328
internal_count=3298 1645 1653 87 1558 60 176 133 87 50 98 75 1477 1460 276 76 200 58 136 71 55 46 43 51 1324 85 1239 42 1201 328
is_linear=0
shrinkage=0.05


Tree=7
num_leaves=31
num_cat=0
split_feature=23 6 2 23 23 23 11 6 24 6 4 0 23 3 4 24 6 6 6 2 14 6 13 6 5 22 2 1 4 23
split_gain=2743.42 40.133 37.8242 30.5443 10.6909 9.70547 11.4524 7.90909 17.2986 19.1347 6.85801 5.63302 3.98603 2.60497 2.49422 2.57259 9.95145 2.16786 1.33873 1.26009 1.79595 0.981278 5.34545 0.842441 1.94444 0.753561 0.493483 0.353959 0.419048 0.235261
threshold=528.77844000000016 20.471464019851119 0.24500000000000002 493.68335000000008 630.91690000000006 595.2235300000001 481.50000000000006 33.140163081680903 16.458144052538518 20.9631666439785 4649.8479000000016 2015.5000000000002 414.69394000000005 4.0100000000000007 1391.8351500000001 38.422932636585777 41.123949579831937 18.174177774643255 0.43402624475379931 0.15500000000000003 8.0000000000000018 10.925926911288951 30.200000000000003 26.319835717086665 82.720000000000013 15.500000000000002 0.095000000000000015 0.025000000000000005 27269.871000000003 301.17620000000005
decision_type=2 2 2 2 2 2 2 2 2 2 2 2 2 2 2 2 2 2 2 2 2 2 2 2 2 2 2 2 2 2
left_child=3 5 -3 12 11 6 17 8 13 -10 -11 -4 26 18 -14 23 -17 19 -5 -2 -21 27 -23 24 -16 -22 -1 28 -7 -28
right_child=1 2 4 7 -6 21 -8 -9 9 10 -12 -13 14 -15 15 16 -18 -19 -20 20 25 22 -24 -25 -26 -27 29 -29 -30 -31
leaf_value=-4.7242653943593611 0.78466935092249068 -0.86758094243160722 0.049078289190478588 -0.87263244925465533 6.0003728181164977 16.590851459912141 0.3316302460873658 -2.2065998439827808 0.45434046983522763 -0.84454285403876961 -0.17802272107694819 1.7097997898105632 -2.4612474361782293 -0.72203683908575733 -1.1699279549576176 -0.51232239328042795 -3.2929191557396509 0.35159382158749114 -0.63811080730623082 0.65583608752527889 0.84850773128428902 0.58910290843286928 4.9868790829781577 -2.5672516002246968 -2.2704210934645856 1.0245094117280047 -13.511208819075362 4.7234681332711261 16.590851459912141 -5.667907535224689
leaf_weight=28 57 22 32 26 44 20 25 29 26 20 22 34 21 22 30 21 51 22 31 31 54 22 98 111 42 24 861 1138 22 312
leaf_count=28 57 22 32 26 44 20 25 29 26 20 22 34 21 22 30 21 51 22 31 31 54 22 98 111 42 24 861 1138 22 312
internal_value=-0.000333535 0.0453799 0.0189394 -0.0458258 0.0309091 0.0476867 0.0377934 -0.0261364 -0.0214286 -0.00294118 -0.0238095 0.0181818 -0.048172 -0.0373418 -0.0427536 -0.0441176 -0.0361111 0.0420213 -0.0429825 0.0439759 0.0408257 0.0493077 0.045 -0.0472678 -0.0430556 0.0448718 -0.0494172 0.0497458 0.0452381 -0.0495737
internal_weight=3298 1645 132 1653 110 1513 213 176 147 68 42 66 1477 79 276 255 72 188 57 166 109 1300 120 183 72 78 1201 1180 42 1173
internal_count=3298 1645 132 1653 110 1513 213 176 147 68 42 66 1477 79 276 255 72 188 57 166 109 1300 120 183 72 78 1201 1180 42 1173
is_linear=0
shrinkage=0.05


Tree=8
num_leaves=31
num_cat=0
split_feature=23 6 23 24 23 11 23 6 24 6 24 6 1 23 3 24 6 2 6 4 24 23 6 1 6 16 2 1 4 23
split_gain=2717.97 40.474 33.9108 20.457 15.2698 9.7642 9.63333 9.23513 17.0522 18.5128 9.44138 5.83245 5.81818 4.13315 3.64988 3.12189 10.3634 3.28501 1.35809 1.3458 3.99686 1.14233 1.12646 4.63448 0.9 0.696993 0.481035 0.353845 0.419048 0.349259
threshold=528.77844000000016 24.966833990677667 488.65563500000007 22.318007662835253 598.17455000000007 481.50000000000006 566.82491500000015 33.140163081680903 16.458144052538518 20.9631666439785 26.307741831643337 18.174177774643255 1.5050000000000001 414.69394000000005 4.0100000000000007 40.194988339688756 45.490474879980447 0.14500000000000005 0.43402624475379931 44661.060500000007 2.714714876738642 589.10500000000013 10.925926911288951 1.8000000000000003 29.369398023978182 26.500000000000004 0.095000000000000015 0.025000000000000005 27269.871000000003 385.20111000000003
decision_type=2 2 2 2 2 2 2 2 2 2 2 2 2 2 2 2 2 2 2 2 2 2 2 2 2 2 2 2 2 2
left_child=2 4 13 -3 5 11 -5 8 14 -10 -11 19 -13 26 18 17 -17 -15 -4 21 -21 -2 27 -24 -8 -19 -1 28 -6 -28
right_child=1 3 7 6 22 -7 24 -9 9 10 -12 12 -14 15 -16 16 -18 25 -20 20 -22 -23 23 -25 -26 -27 29 -29 -30 -31
leaf_value=-4.4880521246413938 0.87958916107873508 -0.82420189531002852 -0.82900082679192344 0.03414994671204568 15.761308886916533 0.31504873378299864 5.8736176138177285 -2.0287137760631171 0.43162344634346828 -0.80231571133683133 0.097094523424530621 0.035532697913535576 1.7386471403580459 -2.3950587334615152 -0.72523858599865898 -0.48670627361640584 -3.4734453951157693 -2.4349488744164973 -0.61499853244539515 0.43248701939321565 0.80888795990119322 1.566025450007726 0.55964776301122476 4.8963050025578472 2.4268100748223449 -2.3112908615153827 -10.985425599801282 4.4970054199669454 15.761308886916533 -3.7096719752053975
leaf_weight=28 103 27 26 20 20 25 20 32 26 29 20 22 22 22 23 27 37 143 32 26 25 20 24 116 20 35 1091 1133 22 82
leaf_count=28 103 27 26 20 20 25 20 32 26 29 20 22 22 22 23 27 37 143 32 26 25 20 24 116 20 35 1091 1133 22 82
internal_value=-0.000242571 0.0452584 -0.0455233 0.012069 0.0471117 0.0355967 0.0283333 -0.0255319 -0.0205128 -0.00333333 -0.0214286 0.0389908 0.0227273 -0.0480887 -0.0364198 -0.0424242 -0.0328125 -0.0455 -0.0431034 0.0431034 0.0362745 0.045935 0.0492395 0.045 0.0425 -0.0477528 -0.0493339 0.0497447 0.0452381 -0.0494885
internal_weight=3298 1645 1653 87 1558 243 60 188 156 75 49 218 44 1465 81 264 64 200 58 174 51 123 1315 140 40 178 1201 1175 42 1173
internal_count=3298 1645 1653 87 1558 243 60 188 156 75 49 218 44 1465 81 264 64 200 58 174 51 123 1315 140 40 178 1201 1175 42 1173
is_linear=0
shrinkage=0.05


Tree=9
num_leaves=31
num_cat=0
split_feature=23 6 23 24 23 23 11 24 6 4 1 6 4 2 1 23 24 6 24 4 24 23 6 1 1 6 6 24 1 4
split_gain=2685.45 40.3259 35.9066 20.457 16.2049 9.63333 9.49456 7.88183 21.8132 8.83636 8.07882 7.20609 6.44175 5.50035 7.83366 3.22158 4.83551 9.56988 2.72256 1.3458 3.99686 1.14233 1.12646 4.63448 1.03704 0.9 0.38681 4.06699 0.353845 0.419048
threshold=528.77844000000016 24.966833990677667 488.65563500000007 22.318007662835253 598.17455000000007 566.82491500000015 481.50000000000006 11.408912652458154 23.691511751738663 31123.301500000005 4.995000000000001 18.174177774643255 8851.0335000000014 0.095000000000000015 0.085000000000000006 385.20111000000003 38.422932636585777 41.123949579831937 52.282879578690007 44661.060500000007 2.714714876738642 589.10500000000013 10.925926911288951 1.8000000000000003 30.705000000000002 29.369398023978182 45.490474879980447 46.182579426976439 0.025000000000000005 27269.871000000003
decision_type=2 2 2 2 2 2 2 2 2 2 2 2 2 2 2 2 2 2 2 2 2 2 2 2 2 2 2 2 2 2
left_child=2 4 13 -3 6 -5 11 24 9 -9 -10 19 -13 14 -1 26 -17 -18 -19 21 -21 -2 28 -24 -4 -7 27 -15 29 -6
right_child=1 3 7 5 22 25 -8 8 10 -11 -12 12 -14 15 -16 16 17 18 -20 20 -22 -23 23 -25 -26 -27 -28 -29 -30 -31
leaf_value=-5.6871720311710448 0.83560970302480087 -0.78299180054452799 -0.78755078545232782 0.03244244937644112 14.973243442570709 5.5799367331268428 0.29929629709384925 0.40387909856816578 -0.89398295462121957 -0.64512333657117438 -0.87179741338925121 0.030753691273292819 1.0074460962576552 -6.4781241792546416 -0.85300826321800549 -2.4056600204169314 -0.6437763345655938 -3.9157302278940338 -3.0025891599839443 0.41086266842355601 0.76844356190613328 1.4877241775073402 0.53166537486066545 4.6514897524299554 -0.55656139292677842 2.3054695710812267 -11.592007572222107 -2.2237998384343287 4.2721551489685963 14.973243442570709
leaf_weight=25 103 27 27 20 20 20 25 33 41 22 29 23 21 187 22 206 32 63 26 26 25 20 24 116 36 20 882 22 1133 22
leaf_count=25 103 27 27 20 20 20 25 33 41 22 29 23 21 187 22 206 32 63 26 26 25 20 24 116 36 20 882 22 1133 22
internal_value=-3.03214e-05 0.0451976 -0.0450393 0.012069 0.0470475 0.0283333 0.0351852 -0.0244681 -0.0172 0.00636364 -0.0357143 0.0385321 0.0204545 -0.0476792 -0.0308511 -0.048237 -0.0438838 -0.0359504 -0.044382 0.0431034 0.0362745 0.045935 0.0492395 0.045 -0.0388889 0.0425 -0.0495417 -0.0476077 0.0497447 0.0452381
internal_weight=3298 1645 1653 87 1558 60 243 188 125 55 70 218 44 1465 47 1418 327 121 89 174 51 123 1315 140 63 40 1091 209 1175 42
internal_count=3298 1645 1653 87 1558 60 243 188 125 55 70 218 44 1465 47 1418 327 121 89 174 51 123 1315 140 63 40 1091 209 1175 42
is_linear=0
shrinkage=0.05


Tree=10
num_leaves=31
num_cat=0
split_feature=23 6 23 24 23 3 23 6 24 6 4 2 6 6 23 23 24 6 24 1 7 6 14 6 24 14 0 6 24 1
split_gain=2660.27 42.6554 42.6353 18.8488 15.7585 10.7768 10.2158 6.93132 11.9237 14.8782 8.96548 6.92898 8.15603 4.95209 4.897 3.22158 4.83551 9.56988 2.72256 2.5 1.5709 1.49115 4.74113 1.03497 2.87179 0.616092 0.475152 0.38681 4.06699 0.353845
threshold=533.58832000000018 24.966833990677667 488.65563500000007 22.318007662835253 598.17455000000007 13.355000000000002 585.54007000000013 33.140163081680903 16.458144052538518 19.574200503054261 3591.0052500000006 0.095000000000000015 41.123949579831937 18.174177774643255 511.87672500000002 385.20111000000003 38.422932636585777 41.123949579831937 52.282879578690007 1.5050000000000001 116.20000000000002 10.925926911288951 1.2000000000000002 13.769314195431541 14.58671903214157 44.70000000000001 2012.5000000000002 45.490474879980447 46.182579426976439 0.025000000000000005
decision_type=2 2 2 2 2 2 2 2 2 2 2 2 2 2 2 2 2 2 2 2 2 2 2 2 2 2 2 2 2 2
left_child=2 4 11 -3 5 13 -5 8 14 -10 -11 12 -1 20 26 27 -17 -18 -19 -15 23 29 -23 25 -25 -2 -4 28 -13 -6
right_child=1 3 7 6 21 -7 -8 -9 9 10 -12 15 -14 19 -16 16 17 18 -20 -21 -22 22 -24 24 -26 -27 -28 -29 -30 -31
leaf_value=-0.17251070749251057 1.5330813112507373 -0.74384221051730037 -0.74817324617970948 0.20184319092732894 14.224581270442172 0.011131008882523476 4.8162649680144716 -1.8161321408699735 1.1048344944065207 -0.71642308884160011 -0.074685335171389519 -6.15421797029191 -5.5179375583008525 0.044465703502999082 -0.17386556251570939 -2.2853770193960856 -0.61158751783731446 -3.719943716499333 -2.8524597019847477 1.7071421665992916 0.47144555331495613 1.9902166218799608 4.6230693233746427 0.60875969688426046 1.0613364915658081 0.86905395599807778 -0.59176927472147156 -11.012407193611002 -2.112609846512612 4.0585473915201646
leaf_weight=24 20 27 25 26 42 20 30 33 21 24 38 187 23 20 29 206 32 63 26 20 34 30 110 26 28 67 30 882 22 1133
leaf_count=24 20 27 25 26 42 20 30 33 21 24 38 187 23 20 29 206 32 63 26 20 34 30 110 26 28 67 30 882 22 1133
internal_value=-0.000181928 0.0451623 -0.0446547 0.010241 0.0470323 0.0351064 0.0267857 -0.023 -0.0188623 -0.00542169 -0.0177419 -0.0476109 -0.0287234 0.0383721 -0.0321429 -0.048237 -0.0438838 -0.0359504 -0.044382 0.0225 0.042 0.0491635 0.0442857 0.0443262 0.0388889 0.0477011 -0.0409091 -0.0495417 -0.0476077 0.0497447
internal_weight=3298 1633 1665 83 1550 235 56 200 167 83 62 1465 47 215 84 1418 327 121 89 40 175 1315 140 141 54 87 55 1091 209 1175
internal_count=3298 1633 1665 83 1550 235 56 200 167 83 62 1465 47 215 84 1418 327 121 89 40 175 1315 140 141 54 87 55 1091 209 1175
is_linear=0
shrinkage=0.05


Tree=11
num_leaves=31
num_cat=0
split_feature=23 23 6 23 24 3 23 23 2 6 6 6 6 24 6 23 24 6 1 24 6 23 1 7 6 24 5 14 4 4
split_gain=2606.97 47.8216 39.3307 16.2042 16.2035 10.5172 10.2158 7.04381 6.53411 8.15603 6.30326 4.94238 4.616 11.102 14.5341 4.2764 7.97668 2.89158 7.51987 1.78138 12.3011 1.94168 1.6 1.5709 1.03497 2.87179 0.985003 0.616092 0.565937 0.526864
threshold=533.58832000000018 488.65563500000007 24.966833990677667 598.17455000000007 22.318007662835253 13.355000000000002 585.54007000000013 514.81360000000006 0.095000000000000015 41.123949579831937 18.174177774643255 20.9631666439785 33.140163081680903 16.458144052538518 23.691511751738663 336.6961300000001 58.476213475006041 10.925926911288951 1.8000000000000003 37.776462988687108 38.106261022927697 445.55826500000006 1.5050000000000001 116.20000000000002 13.769314195431541 14.58671903214157 30.970000000000002 44.70000000000001 1455.5771000000002 12994.544500000002
decision_type=2 2 2 2 2 2 2 2 2 2 2 2 2 2 2 2 2 2 2 2 2 2 2 2 2 2 2 2 2 2
left_child=1 8 3 5 -4 10 -6 12 9 -1 23 -9 13 26 -15 -10 19 -5 -19 28 -21 -22 -12 24 27 -26 -3 -2 -17 -20
right_child=2 7 4 17 6 -7 -8 11 15 -11 22 -13 -14 14 -16 16 -18 18 29 20 21 -23 -24 -25 25 -27 -28 -29 -30 -31
leaf_value=-0.16388517211788525 1.456427245688201 -0.71076458387072428 -0.70665009999143535 4.0497087670613441 0.19175103138096292 0.010574458438395596 4.5754517196137474 0.020664071624443638 -10.431747618842561 -5.2420406803858102 0.042242418327850834 -0.49881589204708804 -1.867474846443733 0.49306087874420546 -0.68167962359684686 -2.3503388561466778 -1.7840037977084693 0.40557127502362961 3.401048504500972 -0.4609954771505258 -3.7129913315879861 -1.9900951018069706 1.6217850582693274 0.44787327564920648 0.57832171204004801 1.0082696669875162 -0.54922126823450412 0.82560125819817365 -2.4368082195080305 7.0734819761806591
leaf_weight=24 20 24 27 1175 26 20 30 34 956 23 20 26 26 23 29 21 28 24 43 24 149 24 20 34 26 28 38 67 216 73
leaf_count=24 20 24 27 1175 26 20 30 34 956 23 20 26 26 23 29 21 28 24 43 24 149 24 20 34 26 28 38 67 216 73
internal_value=9.09642e-05 -0.0439339 0.0449786 0.0467742 0.0114458 0.0346809 0.0267857 -0.021 -0.0470648 -0.0287234 0.037907 -0.00666667 -0.0271429 -0.022807 -0.00576923 -0.0476728 -0.0437229 0.0489354 0.0421429 -0.0453917 -0.0418782 -0.0465318 0.02 0.042 0.0443262 0.0388889 -0.0370968 0.0477011 -0.0483122 0.0474138
internal_weight=3298 1665 1633 1550 83 235 56 200 1465 47 215 60 140 114 52 1418 462 1315 140 434 197 173 40 175 141 54 62 87 237 116
internal_count=3298 1665 1633 1550 83 235 56 200 1465 47 215 60 140 114 52 1418 462 1315 140 434 197 173 40 175 141 54 62 87 237 116
is_linear=0
shrinkage=0.05


Tree=12
num_leaves=31
num_cat=0
split_feature=23 23 6 24 23 6 24 23 23 24 24 6 4 6 1 24 6 4 6 3 24 6 6 24 10 2 23 23 0 16
split_gain=2543.55 51.1267 40.3638 22.9365 19.0483 15.946 14.3642 13.342 8.64645 8.60695 8.23714 19.0111 9.32242 8.21778 8.1979 4.87366 5.41567 12.093 4.07808 3.13046 2.50549 3.77143 2.07725 23.8272 1.3586 1.04633 1.01939 1.00293 0.925786 0.616193
threshold=533.58832000000018 488.65563500000007 12.222282579173234 8.7390138645437858 612.6876850000001 24.966833990677667 26.307741831643337 560.86872000000005 414.69394000000005 12.875293351700771 8.4110871723780161 24.966833990677667 31123.301500000005 20.9631666439785 4.995000000000001 46.182579426976439 26.319835717086665 21640.542000000005 20.007371913011429 15.775 37.776462988687108 41.72057917436846 53.353964289535519 57.965225563909776 2730.5000000000005 0.13500000000000004 580.85103500000002 508.64570500000008 2012.5000000000002 16.000000000000004
decision_type=2 2 2 2 2 2 2 2 2 2 2 2 2 2 2 2 2 2 2 2 2 2 2 2 2 2 2 2 2 2
left_child=1 8 7 -4 5 9 -7 -2 22 -5 27 12 13 -12 -13 16 17 -10 24 -9 -18 -22 23 25 26 -1 -11 -3 -19 -27
right_child=2 10 3 4 -6 6 -8 19 15 18 11 14 -14 -15 -16 -17 20 28 -20 -21 21 -23 -24 -25 -26 29 -28 -29 -30 -31
leaf_value=-2.124272427659335 0.046150645221962355 -0.67522635467718717 -0.27521205900648055 0.21233808977397076 4.9705285499790479 -0.67131759499186505 0.67321897481066628 3.6104557505832759 0.050224196120245784 0.70025584836581634 0.66576577375004153 -0.83043667981886249 -0.48852050538150993 -0.14254683857938347 -0.53364982000833838 -1.9746099952207814 -2.0777840919678852 -1.6513243736498753 0.74790631246481221 3.1205832123027903 -0.96934269053430455 -3.2797899094541805 -10.452152444473919 0.13891108715376108 0.49142459313510189 -4.5578109764112922 1.2690325711588486 -0.22316484527170816 -2.6713910005255599 -2.236210820662913
leaf_weight=28 23 39 21 27 119 22 26 1244 21 55 25 38 28 20 29 34 114 30 26 30 20 22 831 25 20 293 20 21 23 24
leaf_count=28 23 39 21 27 119 22 26 1244 21 55 25 38 28 20 29 34 114 30 26 30 20 22 831 25 20 293 20 21 23 24
internal_value=0.000272893 -0.0432132 0.0446111 0.0291667 0.0325397 0.0229592 -0.00208333 0.0486122 -0.0464505 0.0310811 -0.0195 -0.0128571 0.00479452 0.0188889 -0.0320896 -0.0382576 -0.0408696 -0.0297297 0.0367769 0.0492936 -0.0461538 -0.0357143 -0.0482515 -0.0451351 0.0415789 -0.0485507 0.0446667 -0.035 -0.0424528 -0.0493691
internal_weight=3298 1665 1633 336 315 196 48 1297 1465 148 200 140 73 45 67 264 230 74 121 1274 156 42 1201 370 95 345 75 60 53 317
internal_count=3298 1665 1633 336 315 196 48 1297 1465 148 200 140 73 45 67 264 230 74 121 1274 156 42 1201 370 95 345 75 60 53 317
is_linear=0
shrinkage=0.05


Tree=13
num_leaves=31
num_cat=0
split_feature=23 23 23 6 24 6 24 2 6 24 24 23 23 6 24 21 4 24 1 14 23 24 6 5 0 0 4 24 14 2
split_gain=2504.56 54.4271 38.7176 26.0435 17.6333 16.1116 28.9569 12.1552 11.7132 19.188 10.9786 8.58215 7.59995 6.26205 18.4884 10 5.52591 4.66667 4.41563 4.43538 4.09646 6.3845 2.9909 4.26965 2.90136 2.57561 2.5 2.29744 1.83305 1.78828
threshold=528.77844000000016 585.54007000000013 464.57918000000006 20.007371913011429 20.532726045883944 12.222282579173234 8.7390138645437858 0.56500000000000006 25.478053106348117 24.689082481573983 9.5237637235414407 625.00003000000004 508.64570500000008 55.74481291862346 57.965225563909776 3.5000000000000004 30697.799500000005 13.698159906246177 4.3550000000000013 1917.0000000000002 414.69394000000005 46.182579426976439 30.041016177121616 82.720000000000013 2012.5000000000002 2016.5000000000002 15598.863500000001 10.793114422644901 1.2000000000000002 0.13500000000000004
decision_type=2 2 2 2 2 2 2 2 2 2 2 2 2 2 2 2 2 2 2 2 2 2 2 2 2 2 2 2 2 2
left_child=2 3 13 7 -5 -3 -7 28 9 12 -9 17 25 14 20 -16 -14 -8 -10 -20 29 22 23 -22 -12 27 -6 -4 -2 -1
right_child=1 5 8 4 26 6 11 10 18 -11 24 -13 16 -15 15 -17 -18 -19 19 -21 21 -23 -24 -25 -26 -27 -28 -29 -30 -31
leaf_value=-2.018245043123895 0.53144471268265647 3.5274152628588014 -0.64146503694332757 -0.45012230424069344 0.63955802607013368 -0.26145145605615883 0.22427948706425127 -0.014818408298788201 -1.4553452625627656 0.47553517673596279 0.87620082780304642 4.7761778274195761 0.029599606985237871 -9.9996475139006122 0.17521275834605776 -1.3779349969666954 -0.31877552539817772 1.9192587139346076 -0.25229575425411072 -1.5428391238274117 -1.0821594864886208 -1.5564710484767303 -2.2709510591404083 -2.1417114788784146 0.34565837934037519 -0.75630938870198183 -0.012849618836057175 -0.74759535620313222 0.45810138627472841 -4.1984959688253767
leaf_weight=29 43 1217 39 20 20 21 24 30 58 31 27 109 25 797 20 20 26 32 24 26 25 22 94 28 30 22 20 21 52 346
leaf_count=29 43 1217 39 20 20 21 24 30 58 31 27 109 25 797 20 20 26 32 24 26 25 22 94 28 30 22 20 21 52 346
internal_value=0.000121286 0.0437994 -0.0433454 0.0219008 -0.00666667 0.0475766 0.033871 0.0313187 -0.0261029 -0.0176829 0.0178161 0.0409091 -0.0259398 -0.0467415 -0.0428082 -0.01 -0.0107843 0.025 -0.0388889 -0.028 -0.0452206 -0.0387574 -0.042517 -0.0330189 0.0307018 -0.0353659 0.0125 -0.03 0.0436842 -0.0481333
internal_weight=3298 1645 1653 242 60 1403 186 182 272 164 87 165 133 1381 584 40 51 56 108 50 544 169 147 53 57 82 40 60 95 375
internal_count=3298 1645 1653 242 60 1403 186 182 272 164 87 165 133 1381 584 40 51 56 108 50 544 169 147 53 57 82 40 60 95 375
is_linear=0
shrinkage=0.05


Tree=14
num_leaves=31
num_cat=0
split_feature=23 23 23 6 6 24 24 6 24 21 6 6 24 21 3 6 8 24 23 24 5 10 23 1 14 2 6 24 7 23
split_gain=2462.94 53.4011 38.1969 21.4218 12.791 25.5623 11.3357 10.7126 18.9547 9.14401 9.01845 8.11499 17.4744 14.0661 7.98878 6.47404 8.51212 5.53913 4.27433 6.6876 4.18513 9.01717 3.73705 3.6966 4.43538 3.23103 2.54692 9.15238 1.73077 1.22471
threshold=528.77844000000016 599.8108850000001 464.57918000000006 24.966833990677667 10.426864214561595 8.0397883956738614 26.307741831643337 25.478053106348117 16.458144052538518 3.5000000000000004 23.691511751738663 56.656869926688238 57.965225563909776 3.5000000000000004 13.355000000000002 18.174177774643255 175.00000000000003 22.318007662835253 404.27108000000004 47.090562843842584 18.840000000000003 2539.0000000000005 511.87672500000002 4.3550000000000013 1917.0000000000002 0.13500000000000004 34.24707602339182 33.863425343830407 1275.0000000000002 625.00003000000004
decision_type=2 2 2 2 2 2 2 2 2 2 2 2 2 2 2 2 2 2 2 2 2 2 2 2 2 2 2 2 2 2
left_child=2 3 11 14 -3 -6 -5 8 22 -7 17 12 18 -14 15 20 -17 -10 25 26 -2 -22 28 -9 -25 -1 27 -20 -4 -11
right_child=1 4 7 6 5 9 -8 23 10 29 -12 -13 13 -15 -16 16 -18 -19 19 -21 21 -23 -24 24 -26 -27 -28 -29 -30 -31
leaf_value=-1.8666951150306716 0.64233798663378827 3.5019874928799255 -0.60939178509615888 -0.61524560003023798 -0.077817362806973739 1.7957616241236281 0.56346468683344997 -1.3825779994346263 0.014803190342152562 0.78154857933215005 -0.51807410108481522 -9.6784225768652519 0.16417622331562429 -1.2941190482035099 3.3071570715037528e-05 -0.057211763690852992 1.5787052170187481 1.2504226583782228 -1.9330155405296026 -1.4117263269611244 0.084983624480918257 0.7405586789126346 -0.15609228925237348 -0.23968096654140539 -1.46569716763604 -4.1199956291494573 -2.87106200075891 -0.46628502236112868 -0.56293250271764639 4.860405755523181
leaf_weight=26 101 1160 52 20 24 21 28 58 26 22 20 777 23 26 23 24 20 20 84 21 39 41 26 24 26 327 76 21 20 122
leaf_count=26 101 1160 52 20 24 21 28 58 26 22 20 777 23 26 23 24 20 20 84 21 39 41 26 24 26 327 76 21 20 122
internal_value=0.000242571 0.0435562 -0.0428615 0.0243243 0.0477761 0.0357143 -0.00625 -0.0257353 -0.0176829 0.0427273 0.0030303 -0.0462346 -0.0418874 -0.0132653 0.0302419 0.0331111 0.0159091 0.0152174 -0.0444144 -0.0386139 0.0372928 0.02875 -0.0316327 -0.037963 -0.028 -0.0477337 -0.0417127 -0.0366667 -0.0375 0.0472222
internal_weight=3298 1645 1653 296 1349 189 48 272 164 165 66 1381 604 49 248 225 44 46 555 202 181 80 98 108 50 353 181 105 72 144
internal_count=3298 1645 1653 296 1349 189 48 272 164 165 66 1381 604 49 248 225 44 46 555 202 181 80 98 108 50 353 181 105 72 144
is_linear=0
shrinkage=0.05


Tree=15
num_leaves=31
num_cat=0
split_feature=23 23 23 6 24 6 24 3 6 1 6 24 21 2 1 24 23 2 2 2 6 5 0 4 4 2 23 7 24 25
split_gain=2425.07 54.1879 41.5502 25.2124 15.995 11.5857 32.9566 9.84615 7.25906 7.76973 7.12156 17.956 14.0661 7.06368 10.5913 6.83334 5.65097 5.55554 12.18 4.58562 4.51708 19.0321 4.06377 3.67309 3.76923 3.64705 3.71792 4.80351 8.8658 3.42857
threshold=528.77844000000016 615.89973000000009 445.55826500000006 24.966833990677667 24.169696474529193 25.478053106348117 25.478053106348117 13.355000000000002 14.840390537990455 0.72500000000000009 56.656869926688238 57.965225563909776 3.5000000000000004 0.21500000000000002 0.03500000000000001 16.898677708925543 514.81360000000006 0.54500000000000015 0.97500000000000009 0.80500000000000016 10.426864214561595 2.1850000000000005 2009.5000000000002 18348.265500000005 4649.8479000000016 0.13500000000000004 404.27108000000004 37.600000000000009 36.80471160138358 41.778615055560643
decision_type=2 2 2 2 2 2 2 2 2 2 2 2 2 2 2 2 2 2 2 2 2 2 2 2 2 2 2 2 2 2
left_child=2 3 10 7 -5 6 13 8 17 -10 11 25 -13 14 -4 -11 -15 -2 -19 -7 -3 -22 -21 24 -24 29 -27 -28 -29 -1
right_child=1 20 5 4 -6 19 -8 -9 9 15 -12 12 -14 16 -16 -17 -18 18 -20 22 21 -23 23 -25 -26 26 27 28 -30 -31
leaf_value=-1.7737796909297545 0.46220025583969004 3.4447622637437405 -0.59105315365403899 -0.61881607047183995 0.45886054460004289 -1.4101105694634215 0.85549487913982603 3.1417992181559386e-05 -0.012817844165604698 0.17896173927599648 -9.1945014480219864 0.15596741214984322 -1.2294130957933334 -0.67974599913816869 0.039048982951752013 1.3766153632245648 -0.18004334730287042 -0.014576521706965197 0.70701299577160626 -1.7540583261215859 -0.009834263468985683 4.2599174706426144 -0.85268094955745832 -1.1801011391586145 -0.44026802470387594 -3.9139958476919845 -2.2301099607240857 -2.309992330664588 -0.5624877340127995 -3.5613306306699744
leaf_weight=21 146 1077 24 20 33 47 21 25 20 33 777 23 26 81 34 38 24 20 73 38 20 140 26 23 26 327 60 33 21 21
leaf_count=21 146 1077 24 20 33 47 21 25 20 33 777 23 26 81 34 38 24 20 73 38 20 140 26 23 26 327 60 33 21 21
internal_value=0.000272893 0.0432523 -0.0424985 0.027451 -0.00471698 -0.0270349 -0.0184783 0.0322535 0.0345455 0.0225275 -0.0465623 -0.0421053 -0.0132653 -0.0260736 -0.012069 0.0302817 -0.0338095 0.0391213 0.0295699 -0.036875 0.048464 0.040625 -0.0314159 -0.0246667 -0.0173077 -0.0450311 -0.0463719 -0.0385965 -0.0277778 -0.0309524
internal_weight=3298 1645 1653 408 53 344 184 355 330 91 1309 532 49 163 58 71 105 239 93 160 1237 160 113 75 52 483 441 114 54 42
internal_count=3298 1645 1653 408 53 344 184 355 330 91 1309 532 49 163 58 71 105 239 93 160 1237 160 113 75 52 483 441 114 54 42
is_linear=0
shrinkage=0.05


Tree=16
num_leaves=31
num_cat=0
split_feature=23 23 23 6 24 3 23 0 6 24 24 2 0 24 6 22 1 6 4 24 6 6 24 4 23 1 1 23 24 6
split_gain=2346.8 54.62 42.4934 31.3055 20.8989 12.568 10.6384 8.15506 9.95833 21.1733 7.75781 7.16679 6.35392 6.22256 11.4329 9.16122 5.33795 5.24269 9.52146 4.74336 14.6794 3.78908 10.7829 4.49244 3.65801 3.35782 6.63701 2.98667 3.87241 9.34912
threshold=528.77844000000016 624.26330000000019 365.68048000000005 21.32646941223511 20.532726045883944 13.355000000000002 475.11430000000001 2019.5000000000002 33.140163081680903 27.146272172949008 55.39873907205542 0.095000000000000015 2015.5000000000002 10.148039171757302 23.691511751738663 133.00000000000003 0.095000000000000015 0.38036559287809385 57481.981500000002 40.194988339688756 46.537003602001313 14.318255776114549 13.698159906246177 11792.955000000004 414.69394000000005 0.045000000000000005 0.065000000000000016 261.07611000000003 59.266280107047287 56.656869926688238
decision_type=2 2 2 2 2 2 2 2 2 2 2 2 2 2 2 2 2 2 2 2 2 2 2 2 2 2 2 2 2 2
left_child=2 3 27 5 -5 17 10 8 9 13 11 -4 -6 -8 15 -15 25 -2 21 -13 24 -19 -23 -24 -21 -3 -27 -1 -29 -30
right_child=1 16 6 4 12 -7 7 -9 -10 -11 -12 19 -14 14 -16 -17 -18 18 -20 20 -22 22 23 -25 -26 26 -28 28 29 -31
leaf_value=-10.211518204539344 0.439090243047707 7.4391928517284276 -1.4079082366869216 -0.55354251650513508 -0.0081845601912789341 -0.17172583763200466 -0.40223379252597624 -0.68727410661303745 -1.530949580413818 0.38389210595537693 -0.3245442461089425 -1.9401861365597839 1.318399754670307 0.26170633221878176 -0.61384073496603697 -0.72929757320954991 3.2725241505565523 0.66818009517842258 0.064487480966303676 -1.1372875328442704 -3.0023482822007796 -0.11041307819665747 0.3288565277700059 0.72946298581451863 0.20246995960285119 3.2725272023143646 3.2725241505565523 -3.1437123029954392 -0.16641385426779465 -2.286096328635975
leaf_weight=741 56 94 28 23 27 23 61 42 37 20 21 212 28 34 22 20 1055 179 20 20 48 20 35 33 22 21 31 229 20 76
leaf_count=741 56 94 28 23 27 23 61 42 37 20 21 212 28 34 22 20 1055 179 20 20 48 20 35 33 22 21 31 229 20 76
internal_value=0.000181928 0.042462 -0.0418935 0.0274775 -0.00128205 0.0336066 -0.0310903 -0.0228814 -0.0185567 -0.0130573 -0.0366097 -0.0384848 0.0154545 -0.020073 -0.0105263 0.00185185 0.0480017 0.0360058 0.0332753 -0.0407285 -0.0311111 0.0357678 0.0272727 0.0367647 -0.00952381 0.0390411 0.0288462 -0.0478424 -0.0438462 -0.0354167
internal_weight=3298 1645 1653 444 78 366 587 236 194 157 351 330 55 137 76 54 1201 343 287 302 90 267 88 68 42 146 52 1066 325 96
internal_count=3298 1645 1653 444 78 366 587 236 194 157 351 330 55 137 76 54 1201 343 287 302 90 267 88 68 42 146 52 1066 325 96
is_linear=0
shrinkage=0.05


Tree=17
num_leaves=31
num_cat=0
split_feature=23 23 23 6 24 6 24 4 6 3 24 6 24 0 23 6 2 25 6 10 0 13 24 6 25 6 24 23 1 1
split_gain=2289.79 56.0092 46.3343 29.8518 20.8989 12.6298 29.7159 13.5394 15.9882 11.9988 7.86992 19.7193 6.89562 6.35392 6.01986 5.45261 5.13531 14.074 6.36364 5.85575 5.87128 5.31858 4.88006 3.80268 14.2273 3.59804 8.36659 8.69482 3.46149 4.75624
threshold=528.77844000000016 624.26330000000019 365.68048000000005 21.32646941223511 20.532726045883944 28.689819357536958 28.411314435723121 19297.700500000003 23.691511751738663 13.355000000000002 46.182579426976439 46.537003602001313 19.646601357671234 2015.5000000000002 508.64570500000008 23.133200936923874 0.54500000000000015 4.9040155988399308 14.840390537990455 1093.5000000000002 2015.5000000000002 97.450000000000017 54.908454424973357 36.739830160252033 36.093287620370347 60.541418497862516 59.266280107047287 284.55411500000008 0.095000000000000015 0.045000000000000005
decision_type=2 2 2 2 2 2 2 2 2 2 2 2 2 2 2 2 2 2 2 2 2 2 2 2 2 2 2 2 2 2
left_child=2 3 25 9 -5 6 7 8 12 16 23 -12 -4 -6 -9 28 18 -18 -2 20 -19 -20 -13 24 -7 26 -1 -28 29 -3
right_child=1 15 5 4 13 10 -8 14 -10 -11 11 22 -14 -15 -16 -17 17 19 21 -21 -22 -23 -24 -25 -26 -27 27 -29 -30 -31
leaf_value=-3.6661018525610176 0.42012063613823902 7.0672332091420067 -0.52925784853235036 -0.52586539067987703 -0.0077753321817169768 -1.4867502029153172 0.28482878322959099 -1.1381834975589471 -0.54464975100202084 -0.16313954575040271 0.31639639008386811 -2.3543334366085547 0.37419951922173028 1.2524797669367929 -0.13466136886610799 3.6329960924446283 -0.019277146339692311 1.1278393639608084 0.067741234977648904 0.6929898365237932 0.074870771195620023 0.30767009923650906 -0.70809217822094583 -2.8611937125074238 -0.088941483720215334 -8.7700806304940162 -1.1271358734591075 -0.11469280756621032 3.1088979430287225 3.1088979430287225
leaf_weight=310 165 91 22 23 27 99 25 118 33 23 20 40 27 28 34 38 22 26 23 61 24 22 22 119 28 689 47 20 1020 52
leaf_count=310 165 91 22 23 27 99 25 118 33 23 20 40 27 28 34 38 22 26 23 61 24 22 22 119 28 689 47 20 1020 52
internal_value=0.00021225 0.0419757 -0.0413491 0.0268018 -0.00128205 -0.0300681 -0.0218147 -0.0273504 -0.0109756 0.0327869 -0.0365854 -0.0231707 0.00714286 0.0154545 -0.0361842 0.0475853 0.0351312 0.0274436 0.04 0.0346847 0.022 0.0233333 -0.0370968 -0.0410569 -0.0350394 -0.047561 -0.043634 -0.0276119 0.0481943 0.0409091
internal_weight=3298 1645 1653 444 78 587 259 234 82 366 328 82 49 55 152 1201 343 133 210 111 50 45 62 246 127 1066 377 67 1163 143
internal_count=3298 1645 1653 444 78 587 259 234 82 366 328 82 49 55 152 1201 343 133 210 111 50 45 62 246 127 1066 377 67 1163 143
is_linear=0
shrinkage=0.05


Tree=18
num_leaves=31
num_cat=0
split_feature=23 23 23 6 24 6 2 24 23 24 24 2 24 8 6 24 23 23 23 24 6 24 6 0 6 4 4 24 25 20
split_gain=2226.91 63.5349 48.3841 24.2461 37.6426 22.2509 14.2245 12.1504 11.7007 11.1871 10.9499 10.1882 14.0547 8.98085 6.34833 17.9501 6.51799 5.01135 4.88788 5.19881 23.5316 4.00479 14.5123 3.82066 3.7874 3.62963 3.26667 2.45644 2.33333 2.15784
threshold=528.77844000000016 585.54007000000013 365.68048000000005 10.925926911288951 8.7390138645437858 19.960420835503552 0.045000000000000005 16.458144052538518 475.11430000000001 24.169696474529193 55.39873907205542 0.56500000000000006 9.5237637235414407 1948.5000000000002 33.140163081680903 27.146272172949008 508.64570500000008 636.38282500000014 268.37207000000006 50.877710009738109 49.34281626759504 40.194988339688756 40.166719444511322 2012.5000000000002 46.537003602001313 30697.799500000005 13303.121000000001 64.514710585225473 37.626592776139439 73.500000000000014
decision_type=2 2 2 2 2 2 2 2 2 2 2 2 2 2 2 2 2 2 2 2 2 2 2 2 2 2 2 2 2 2
left_child=2 5 18 -3 -5 11 7 -4 10 -7 21 -2 -13 17 15 16 29 26 -1 -20 -21 -8 -23 -14 -24 -18 -6 -22 -16 -10
right_child=1 3 6 4 13 9 8 -9 14 -11 -12 12 23 -15 28 -17 25 -19 19 20 27 22 24 -25 -26 -27 -28 -29 -30 -31
leaf_value=-8.9047800426867418 0.39523052835901923 2.5594265510300431 -0.476258772940858 -0.34690747300814739 0.24196652082833908 -0.29675991419802017 -1.7775534872199401 0.046445378870024007 -0.46473943546548213 0.40903259873730352 -0.27291242489244782 -0.036066016295700366 0.69195370609357387 4.0853184895356263 -1.3800645912473612 0.2647599632309891 0.047349367766685191 3.6023338715039759 -3.1291004126231572 0.26280299506936727 -1.8580078968469707 0.15322455691577519 -1.2685565046091398 0.19960758920051946 -2.7284007624224218 -0.19250591058274724 0.55023939212007922 -1.4140651915437816 -0.98818597103941108 -0.39128950215360875
leaf_weight=765 93 1196 24 24 30 30 224 35 44 32 21 30 27 80 21 21 27 43 130 20 129 22 25 30 48 27 30 22 27 21
leaf_count=765 93 1196 24 24 30 30 224 35 44 32 21 30 27 80 21 21 27 43 130 20 129 22 25 30 48 27 30 22 27 21
internal_value=0.000242571 0.0414286 -0.0407441 0.0455096 0.0297101 0.0177686 -0.0292164 -0.0059322 -0.0318182 -0.00806452 -0.0373529 0.0266667 0.0143678 0.0374317 -0.0218085 -0.0164286 -0.0239496 0.0276699 -0.0470919 -0.0416944 -0.0359649 -0.0396552 -0.0310526 0.0289474 -0.0417808 -0.0111111 0.0183333 -0.0427152 -0.0375 -0.0346154
internal_weight=3298 1645 1653 1403 207 242 587 59 528 62 340 180 87 183 188 140 119 103 1066 301 171 319 95 57 73 54 60 151 48 65
internal_count=3298 1645 1653 1403 207 242 587 59 528 62 340 180 87 183 188 140 119 103 1066 301 171 319 95 57 73 54 60 151 48 65
is_linear=0
shrinkage=0.05


Tree=19
num_leaves=31
num_cat=0
split_feature=23 23 23 6 6 24 23 24 23 6 10 24 0 24 2 6 6 24 6 24 3 6 6 24 7 2 4 7 8 24
split_gain=2142.26 66.0536 56.8881 25.0193 15.1155 14.9925 18.8886 11.5238 11.5172 11.0919 22.1502 10.5666 9.61016 8.48294 16.5578 9.0493 7.05484 17.0305 6.96479 6.73341 6.50218 11.7323 4.50051 15.5491 4.25343 3.74502 4.83741 3.5471 3.31325 2.87587
threshold=528.77844000000016 624.26330000000019 464.57918000000006 24.966833990677667 60.541418497862516 58.476213475006041 301.17620000000005 26.307741831643337 571.41235000000017 10.925926911288951 117.50000000000001 10.611305937715436 2017.5000000000002 10.793114422644901 0.19500000000000003 28.989388700787643 10.426864214561595 11.629156518408207 19.115109353445245 26.307741831643337 1.0000000180025095e-35 28.156710619397188 48.348009606287768 48.460696731604081 97.500000000000014 0.75500000000000012 18348.265500000005 449.14500000000004 357.25000000000006 35.468417648693823
decision_type=2 2 2 2 2 2 2 2 2 2 2 2 2 2 2 2 2 2 2 2 2 2 2 2 2 2 2 2 2 2
left_child=2 3 4 8 5 20 24 -5 11 -3 -11 -2 13 -4 -15 19 25 -18 27 28 21 -1 23 29 -7 -10 -27 -13 -16 -23
right_child=1 9 12 7 -6 6 -8 -9 16 10 -12 18 -14 14 15 -17 17 -19 -20 -21 -22 22 -24 -25 -26 26 -28 -29 -30 -31
leaf_value=-1.6199187183236035 -0.0052441242873612738 2.8254817183257845 -0.4207019024266444 -0.49101176034426719 -7.8624041377771396 -0.5283702411808634 0.25512476947639867 0.36335281924455959 0.30750250887523123 -0.02131798635892608 4.7442114051297892 0.48176858168330911 -0.55056995919646567 0.066513083446479021 -0.58045418636200596 -1.2897837112345798 -0.15618906184233766 0.75802101995126636 -0.018491784653332389 0.23625217652486016 -4.016266280908444 -1.7409784263539791 -2.4357092676076491 -0.061521847066913438 -1.1671688234364808 0.86355570309136742 0.21486537543871692 0.21205212939474338 -0.10727998609850148 -1.6356125186136397
leaf_weight=31 43 1063 58 24 701 37 23 32 112 32 106 57 76 32 20 43 27 66 20 20 228 61 127 29 24 22 21 20 23 120
leaf_count=31 43 1063 58 24 701 37 23 32 112 32 106 57 76 32 20 43 27 66 20 20 228 61 127 29 24 22 21 20 23 120
internal_value=0.000181928 0.0405775 -0.0400181 0.0240991 -0.0441347 -0.0388235 -0.0190476 -0.00714286 0.0286082 0.0466694 0.0333333 0.0171429 -0.0191176 -0.0132653 -0.00652174 -0.0160377 0.0350806 0.0241935 0.0262887 -0.00396825 -0.0416107 -0.0375 -0.0402077 -0.0357143 -0.0336066 0.0416129 0.0290698 0.0331169 -0.0151163 -0.0411602
internal_weight=3298 1645 1653 444 1381 680 84 56 388 1201 138 140 272 196 138 106 248 93 97 63 596 368 337 210 61 155 43 77 43 181
internal_count=3298 1645 1653 444 1381 680 84 56 388 1201 138 140 272 196 138 106 248 93 97 63 596 368 337 210 61 155 43 77 43 181
is_linear=0
shrinkage=0.05


Tree=20
num_leaves=31
num_cat=0
split_feature=23 23 23 6 23 24 23 6 6 24 6 6 24 23 4 24 24 6 4 24 6 24 2 24 6 1 6 24 1 6
split_gain=2071.9 67.435 56.0302 23.5972 14.9268 16.7698 13.8594 13.7486 13.6955 11.5238 9.8053 9.52215 29.096 9.35816 8.60199 8.15317 7.33968 7.05833 8.64286 5.9776 5.39655 10.1818 5.67309 9.36144 5.22313 24.9504 5.20024 15.2429 4.22386 4.81731
threshold=528.77844000000016 624.26330000000019 452.23025500000006 24.966833990677667 284.55411500000008 58.476213475006041 571.41235000000017 21.449156031288599 58.036262050832605 26.307741831643337 10.925926911288951 25.478053106348117 25.019177661859469 508.64570500000008 30697.799500000005 41.845380626603536 24.689082481573983 14.840390537990455 10370.297000000002 19.960420835503552 14.318255776114549 16.898677708925543 0.47500000000000003 8.7390138645437858 5.4034552024449978 1.8450000000000004 50.054466230936832 50.054466230936832 1.2950000000000002 32.88821516810264
decision_type=2 2 2 2 2 2 2 2 2 2 2 2 2 2 2 2 2 2 2 2 2 2 2 2 2 2 2 2 2 2
left_child=2 3 4 6 -1 26 10 24 -7 -5 -2 12 13 19 -15 28 -9 -12 -19 -4 22 -22 -8 -24 -3 -26 27 -6 -13 -30
right_child=1 7 11 9 5 8 20 16 -10 -11 17 15 -14 14 -16 -17 -18 18 -20 -21 21 -23 23 -25 25 -27 -28 -29 29 -31
leaf_value=-7.4898375681687757 -0.0049086758854912206 2.6842076324094934 -0.46548477706493402 -0.46646117232705397 -1.8654787242787649 0.2218828667841507 0.32276529218290195 0.051915379475863693 -1.3743817967770555 0.34518517828232975 0.74530327202081426 -1.0965138260321425 0.6766216985998228 0.074004608696452576 -0.21017707314481698 -0.26135948951538523 4.4022188485282303 -0.028638550224934535 0.19313221581838605 -0.48759178262884295 0.0069062639618380217 1.4188557008323444 0.15852031295632971 0.85994777298118386 0.011255361901680772 3.33441130561165 -2.6732949452950923 0.049856357087001868 -0.28196538580230029 -1.3891742238392624
leaf_weight=813 44 931 82 24 311 24 129 24 38 32 40 37 22 25 26 27 21 28 28 23 28 22 33 36 35 190 127 20 35 43
leaf_count=813 44 931 82 24 311 24 129 24 38 32 40 37 22 25 26 27 21 28 28 23 28 22 33 36 35 190 127 20 35 43
internal_value=0.000121286 0.039848 -0.0394132 0.0231982 -0.0439235 -0.0373077 0.0275773 0.0460033 -0.0129032 -0.00714286 0.015 -0.020625 -0.0129213 -0.0205128 -0.00294118 -0.0302817 0.0188889 0.0239583 0.0125 -0.0290476 0.0346774 0.02 0.0383838 0.0268116 0.0470588 0.0402222 -0.0406114 -0.0373112 -0.036087 -0.0294872
internal_weight=3298 1645 1653 444 1333 520 388 1201 62 56 140 320 178 156 51 142 45 96 56 105 248 50 198 69 1156 225 458 331 115 78
internal_count=3298 1645 1653 444 1333 520 388 1201 62 56 140 320 178 156 51 142 45 96 56 105 248 50 198 69 1156 225 458 331 115 78
is_linear=0
shrinkage=0.05


Tree=21
num_leaves=31
num_cat=0
split_feature=23 23 23 6 23 23 6 24 2 24 6 24 6 6 6 24 6 4 23 24 6 10 24 0 6 24 6 24 23 6
split_gain=1999.74 68.1877 53.9724 22.5118 18.1156 17.3746 12.8375 20.4769 11.1159 11.5714 12.38 8.06686 44.6419 7.76511 7.56251 13.9366 7.49048 7.73586 7.00872 5.52533 6.45412 7.23011 7.02667 5.32932 6.67187 7.0848 4.63289 11.9248 4.53746 4.24286
threshold=528.77844000000016 632.12970000000007 445.55826500000006 27.689355600539816 205.49067000000002 571.41235000000017 10.925926911288951 9.0961590961590986 0.12500000000000003 0.10456153988494542 20.471464019851119 58.476213475006041 56.210271800323888 10.925926911288951 10.426864214561595 11.629156518408207 14.840390537990455 10370.297000000002 517.85782500000016 41.845380626603536 32.88821516810264 67.000000000000014 27.808572169323064 2009.5000000000002 69.098273596065241 64.995812395309898 50.759387756826897 50.877710009738109 365.68048000000005 18.481266105415695
decision_type=2 2 2 2 2 2 2 2 2 2 2 2 2 2 2 2 2 2 2 2 2 2 2 2 2 2 2 2 2 2
left_child=2 3 4 5 -1 13 -3 -8 9 -4 -11 26 -13 -2 -7 -16 -15 -18 19 20 21 -10 -23 -14 25 -25 27 28 -6 -9
right_child=1 6 8 -5 11 14 7 29 18 10 -12 12 23 16 15 -17 17 -19 -20 -21 -22 22 -24 24 -26 -27 -28 -29 -30 -31
leaf_value=-10.359726147957762 -0.0046632420912146701 2.5499972507890165 -0.43467268348411214 -0.39843729024545099 -2.8590851670457371 0.46666595196089133 -0.32905896813487917 5.1386642456838789 -0.32756206197457943 0.97714435461215887 -0.49558263581724593 0.35502410968686182 -1.6816630176863669 0.70803810841977399 -0.12053032126798371 0.49597201318640605 -0.037136341011171227 0.18347560502746491 -0.091407133136334556 -0.24829151503961669 -1.7355736702736069 -0.56540912991394243 0.045349224254798065 -0.74325328048369532 -4.442161447511805 -0.023773095428725813 -2.6032448140303446 -0.19090009880497974 -1.553007621959607 2.8492383857829142
leaf_weight=596 44 1015 20 36 146 202 20 54 62 23 27 32 79 40 28 85 31 34 35 25 59 68 25 40 49 27 130 24 186 56
leaf_count=596 44 1015 20 36 146 202 20 54 62 23 27 32 79 40 28 85 31 34 35 25 59 68 25 40 49 27 130 24 186 56
internal_value=0.000576107 0.0396049 -0.0382638 0.0242 -0.0428953 0.0271552 0.0463319 0.0315385 -0.0206395 -0.00285714 0.01 -0.0375175 -0.0297357 0.0130872 0.0338095 0.0234513 0.0204762 0.01 -0.0251825 -0.0282427 -0.0308411 -0.0254839 -0.0166667 -0.0387179 -0.0318966 -0.0216418 -0.0411523 -0.0382022 -0.0406627 0.04
internal_weight=3298 1645 1653 500 1309 464 1145 130 344 70 50 713 227 149 315 113 105 65 274 239 214 155 93 195 116 67 486 356 332 110
internal_count=3298 1645 1653 500 1309 464 1145 130 344 70 50 713 227 149 315 113 105 65 274 239 214 155 93 195 116 67 486 356 332 110
is_linear=0
shrinkage=0.05


Tree=22
num_leaves=31
num_cat=0
split_feature=23 23 23 6 24 23 24 3 6 24 6 23 24 6 24 6 24 24 6 6 24 6 5 24 3 6 24 24 6 6
split_gain=1934.93 70.9512 54.5809 26.8583 21.0381 18.0314 17.4195 13.6663 13.0703 10.2866 8.65815 8.20674 10.1513 9.26379 7.89951 12.0618 14.5755 8.80208 7.71838 7.2325 23.9621 7.14286 6.79409 6.25517 4.32996 10.1624 15.2937 5.54436 14.2332 4.31964
threshold=528.77844000000016 636.36362500000007 261.07611000000003 21.32646941223511 20.532726045883944 464.57918000000006 62.617818211622001 10.825000000000001 22.085756177210552 24.689082481573983 63.599153140437558 571.41235000000017 12.875293351700771 6.4269307489270826 10.148039171757302 23.691511751738663 19.646601357671234 28.411314435723121 33.367825607064027 58.036262050832605 57.965225563909776 29.369398023978182 1.0050000000000001 41.845380626603536 1.0000000180025095e-35 31.239249628635168 30.153238913396798 40.194988339688756 41.72057917436846 69.098273596065241
decision_type=2 2 2 2 2 2 2 2 2 2 2 2 2 2 2 2 2 2 2 2 2 2 2 2 2 2 2 2 2 2
left_child=2 3 29 7 -5 6 19 11 -3 -10 -8 12 -2 -13 -7 16 -16 -17 -19 20 24 -6 -15 -20 25 26 -4 -27 -29 -1
right_child=1 8 5 4 21 14 10 -9 9 -11 -12 13 -14 22 15 17 -18 18 23 -21 -22 -23 -24 -25 -26 27 -28 28 -30 -31
leaf_value=-4.5885075418946943 -0.00029099144745714511 2.4225004400073775 -2.4257019655236975 -0.43224877292928743 0.52571203439784708 -0.32503927552711503 0.20840728797828945 -0.090229431850650604 -0.093142308787074066 4.1599533526850854 -1.31627452575855 0.47988355768316071 0.49023132757709509 0.14442547451878909 -0.31478631901239285 -0.57094985368543261 0.44221809154613539 0.043081763042059157 -1.0830230129197531 -2.4799325516197399 0.020114813596950401 -0.078569763761461797 0.49624781246472482 -0.14488177038381594 -1.9999920071542647 -1.9544927445085081 0.33538926100117128 -0.31131662010179184 -1.4904287720161833 -8.8299937360001461
leaf_weight=207 42 1072 26 24 28 70 22 27 22 20 27 145 65 39 42 48 32 27 32 93 36 28 133 21 129 108 22 41 136 534
leaf_count=207 42 1072 26 24 28 70 22 27 22 20 27 145 65 39 42 48 32 27 32 93 36 28 133 21 129 108 22 41 136 534
internal_value=0.000848999 0.0392401 -0.0373563 0.0241996 -0.0025 -0.0291667 -0.03375 0.0289357 0.0464093 0.0190476 -0.00510204 0.0311321 0.0191589 0.0351735 -0.0183824 -0.0133663 0.0027027 -0.0226563 -0.0125 -0.0361252 -0.0337349 0.0142857 0.0273256 -0.0235849 -0.0367965 -0.0337838 -0.0125 -0.0373684 -0.0319209 -0.0474359
internal_weight=3298 1645 1653 531 80 912 640 451 1114 42 49 424 107 317 272 202 74 128 80 591 498 56 172 53 462 333 48 285 177 741
internal_count=3298 1645 1653 531 80 912 640 451 1114 42 49 424 107 317 272 202 74 128 80 591 498 56 172 53 462 333 48 285 177 741
is_linear=0
shrinkage=0.05


Tree=23
num_leaves=31
num_cat=0
split_feature=23 23 6 23 6 24 24 6 23 6 24 23 24 6 24 24 23 6 6 6 6 1 4 6 24 6 24 6 24 6
split_gain=1879.41 68.4486 57.514 33.3581 30.1552 29.0938 27.7299 24.1105 16.8371 12.5837 11.1076 9.94738 9.79532 9.14094 32.0711 13.7112 10.5188 9.78307 8.4375 8.2571 7.64334 9.2622 7.17237 15.2406 6.62526 6.40346 4.87265 8.32595 4.93714 4.70748
threshold=542.91176500000006 445.55826500000006 10.925926911288951 571.41235000000017 69.098273596065241 8.7390138645437858 58.8264472455649 53.353964289535519 642.97202500000014 27.689355600539816 69.249690945328879 272.68438000000009 11.967864118819756 26.808647270274033 25.019177661859469 35.948042690484058 517.85782500000016 44.545623874666283 18.174177774643255 59.138428262436925 4.1520531397261076 0.69500000000000006 4649.8479000000016 32.132893609389647 16.458144052538518 20.471464019851119 40.194988339688756 41.123949579831937 51.682545575467152 14.564393939393943
decision_type=2 2 2 2 2 2 2 2 2 2 2 2 2 2 2 2 2 2 2 2 2 2 2 2 2 2 2 2 2 2
left_child=1 4 3 -2 6 -4 22 -8 9 12 11 -9 -7 14 16 -15 24 -17 -18 -13 -5 -22 23 -1 -3 -26 -25 -28 -29 -14
right_child=2 13 5 20 -6 8 7 10 -10 -11 -12 19 29 15 -16 17 18 -19 -20 -21 21 -23 -24 26 25 -27 27 28 -30 -31
leaf_value=0.12067402708675701 -0.0044887726017805111 -0.36443479038332216 -0.44892902877282381 2.2943367446061305 -7.9499968491879329 -0.055207620502864076 0.56244224220018713 -1.1485310357993939 4.4558578119086976 -0.32360847917157121 0.0074162458918067388 0.019109072917103731 0.58431594648236573 -0.98280234544743905 0.28753296059432787 0.098920314633826945 0.19292348130414042 -1.2466275358813819 -0.22187870528637177 -1.0653616885044614 0.60534554204782587 1.3048546142297142 -2.6696471989328616 -1.5090641021995965 0.23762227708029116 -0.49239789426501518 -0.13529412038175792 -2.0612008250594402 -0.9875744073983328 0.22066901050665139
leaf_weight=20 33 96 25 932 563 25 22 71 100 31 30 22 51 109 33 21 40 27 24 35 44 246 404 46 22 20 21 40 35 110
leaf_count=20 33 96 25 932 563 25 22 71 100 31 30 22 51 109 33 21 40 27 24 35 44 246 404 46 22 20 21 40 35 110
internal_value=0.00115221 -0.0354203 0.0401064 0.0450598 -0.0409091 0.0219298 -0.0343164 -0.0172222 0.0260252 0.0182028 -0.0240506 -0.0304688 0.0231183 -0.0170918 -0.0108511 -0.0264331 -0.0183168 -0.00416667 -0.0015625 -0.0149123 0.0463993 0.0393103 -0.0397527 -0.0308642 -0.026087 -0.00952381 -0.0366197 -0.0302083 -0.038 0.0276398
internal_weight=3298 1701 1597 1255 1309 342 746 180 317 217 158 128 186 392 235 157 202 48 64 57 1222 290 566 162 138 42 142 96 75 161
internal_count=3298 1701 1597 1255 1309 342 746 180 317 217 158 128 186 392 235 157 202 48 64 57 1222 290 566 162 138 42 142 96 75 161
is_linear=0
shrinkage=0.05


Tree=24
num_leaves=31
num_cat=0
split_feature=23 23 23 23 6 24 6 6 4 6 24 4 23 23 2 0 24 23 6 24 6 24 6 4 6 24 21 6 24 6
split_gain=1816.22 72.2618 67.4894 27.0794 23.0403 16.6934 12.3266 12.2291 10.4635 9.42512 31.3484 8.96457 8.21778 6.71874 7.06563 6.57959 9.17459 10.2212 9.50303 6.43187 7.75105 18.5814 5.83688 5.51489 5.48262 14.1432 5.08751 4.96482 9.55071 4.68506
threshold=542.91176500000006 238.29970000000003 639.16762000000006 486.96064000000007 1.626123744050767 68.276629275980369 29.803321694890837 20.471464019851119 46151.033000000003 60.541418497862516 59.266280107047287 1188.8497000000002 717.83410500000014 371.96556000000004 0.065000000000000016 2016.5000000000002 29.428104575163406 517.85782500000016 18.174177774643255 47.090562843842584 37.011669203450033 35.468417648693823 56.210271800323888 2172.3587000000002 69.098273596065241 69.249690945328879 20.000000000000004 31.239249628635168 28.411314435723121 14.318255776114549
decision_type=2 2 2 2 2 2 2 2 2 2 2 2 2 2 2 2 2 2 2 2 2 2 2 2 2 2 2 2 2 2
left_child=1 24 4 5 -2 9 8 -4 29 10 13 -5 -9 23 -15 16 17 -13 -19 20 21 27 -12 -3 25 -1 -17 28 -16 -6
right_child=2 3 7 11 6 -7 -8 12 -10 -11 22 15 -14 14 19 26 -18 18 -20 -21 -22 -23 -24 -25 -26 -27 -28 -29 -30 -31
leaf_value=-6.6103257514131855 0.30462163924838709 -0.83429719409722347 2.1866585807767023 0.12400914628227895 0.43650396387412232 0.33984836817348313 -0.42648257733418404 0.85470379792967044 -0.013785427880964108 -1.7939657729189464 0.26400321725440962 -0.33995099144843266 4.5414745548590592 -0.13160566664876541 -1.295944762882776 -0.31516734833262205 0.14822002733408796 0.26809419108022325 -0.10001755895058154 -0.44337618030256182 -2.0607968184655379 0.090579627826940623 -0.24221768944079686 -2.2327465476881545 -8.3908009732507534 -0.73237838018437751 -0.40788320673536166 -1.2269727928725331 -0.16243118270672596 0.17792970335873406
leaf_weight=133 114 47 1020 20 237 23 29 25 40 114 22 84 20 20 86 38 21 33 22 39 96 31 28 188 520 28 30 47 31 112
leaf_count=133 114 47 1020 20 237 23 29 25 40 114 22 84 20 20 86 38 21 33 22 39 96 31 28 188 520 28 30 47 31 112
internal_value=0.00106125 -0.0348912 0.039355 -0.0264706 0.024812 -0.0310881 0.019378 0.0466197 0.0217224 -0.0323765 -0.03 -0.0120968 0.0211111 -0.0332479 -0.0288571 -0.0149123 -0.009375 -0.0140288 0.00272727 -0.0306061 -0.0331615 -0.0274359 0.008 -0.0397872 -0.0475037 -0.039441 -0.0279412 -0.0341463 -0.0286325 0.0244986
internal_weight=3298 1701 1597 1020 532 772 418 1065 389 749 635 248 45 585 350 228 160 139 55 330 291 195 50 235 681 161 68 164 117 349
internal_count=3298 1701 1597 1020 532 772 418 1065 389 749 635 248 45 585 350 228 160 139 55 330 291 195 50 235 681 161 68 164 117 349
is_linear=0
shrinkage=0.05


Tree=25
num_leaves=31
num_cat=0
split_feature=23 23 23 23 6 24 24 6 6 4 4 6 24 24 21 6 24 21 6 24 6 6 24 23 13 0 13 24 0 2
split_gain=1729.32 81.855 72.8566 27.2973 26.2244 21.3529 14.9622 44.8036 13.6769 11.2901 9.77634 9.01545 14.5686 9.83555 9.01009 8.74875 7.68901 11.949 7.09016 11.3425 6.75048 6.67164 16.4657 6.33549 5.73564 6.1228 7.02414 5.82889 5.50988 5.00258
threshold=539.52975000000004 642.85715000000016 218.51297000000002 464.57918000000006 18.481266105415695 19.111278387452433 56.557112068965523 53.353964289535519 1.626123744050767 1188.8497000000002 72767.37000000001 59.841358550335791 60.944940476190482 69.249690945328879 162.50000000000003 20.471464019851119 3.6622082987401403 3.5000000000000004 48.348009606287768 48.460696731604081 28.689819357536958 9.1546472805078309 10.611305937715436 717.83410500000014 1.0500000000000003 2016.5000000000002 8766.3000000000011 25.019177661859469 2011.5000000000002 0.095000000000000015
decision_type=2 2 2 2 2 2 2 2 2 2 2 2 2 2 2 2 2 2 2 2 2 2 2 2 2 2 2 2 2 2
left_child=2 4 -1 6 8 -6 18 -8 10 -5 -2 12 -9 -13 16 -3 17 -10 19 29 -7 -18 -23 -17 27 26 28 -11 -26 -4
right_child=1 15 3 9 5 20 7 11 14 24 -12 13 -14 -15 -16 23 21 -19 -20 -21 -22 22 -24 -25 25 -27 -28 -29 -30 -31
leaf_value=-8.0839636819930814 0.56953185367268588 2.1828164867536404 -1.1595712634615809 0.11780868896816515 -0.30987823971722722 1.0909594183134601 0.61801119921769898 -0.28451171927382574 0.71555664918456052 -0.33493161327708948 0.0032336228367768173 -1.3882994881149147 0.12803551328605636 -0.86995337541989959 -0.0071024058681729233 1.8710130361808979 0.66127048653834208 -0.035609272680778757 -2.2117345907044239 -0.050631101765648626 -0.037136722748101647 -0.095065631087263125 0.39440825948472596 4.3144008271161054 -0.3295076218020796 -0.39875684492375429 0.25468948152621351 0.067257197968905308 -0.012343121098865595 -1.4403763393278866
leaf_weight=620 106 984 29 21 34 42 25 40 31 38 20 126 21 33 30 23 115 21 125 27 26 34 123 20 76 70 21 37 45 335
leaf_count=620 106 984 29 21 34 42 25 40 31 38 20 126 21 33 30 23 115 21 125 27 26 34 123 20 76 70 21 37 45 335
internal_value=0.000909642 0.038005 -0.0344287 -0.0265201 0.0230241 0 -0.0316032 -0.0214286 0.0279167 -0.013961 0.0420635 -0.0286364 -0.0122951 -0.0349057 0.0228814 0.0464946 0.0253086 0.00769231 -0.0364341 -0.0331202 0.0161765 0.0286765 0.0219745 0.0244186 -0.0165505 -0.0207547 -0.0147887 -0.00466667 -0.0194215 -0.0354396
internal_weight=3298 1609 1689 1069 582 102 761 245 480 308 126 220 61 159 354 1027 324 52 516 391 68 272 157 43 287 212 142 75 121 364
internal_count=3298 1609 1689 1069 582 102 761 245 480 308 126 220 61 159 354 1027 324 52 516 391 68 272 157 43 287 212 142 75 121 364
is_linear=0
shrinkage=0.05


Tree=26
num_leaves=31
num_cat=0
split_feature=23 23 6 19 2 4 6 24 6 24 6 23 24 24 23 24 6 6 6 24 23 0 21 1 4 24 23 6 24 6
split_gain=1684.3 88.737 74.2702 21.7477 19.6807 20.3157 18.1703 16.4091 20.7221 29.1375 14.8983 23.1995 12.9375 11.6148 10.7843 10.2691 42.5313 9.87036 9.54031 12.9019 14.1848 9.2372 9.92523 12.6549 8.56202 8.00362 7.87636 7.3203 16.7618 15.3126
threshold=533.58832000000018 639.16762000000006 71.901680645989117 2.5000000000000004 1.0000000180025095e-35 65406.25650000001 24.966833990677667 69.249690945328879 28.689819357536958 27.146272172949008 10.426864214561595 670.72432000000015 16.205555289671782 26.307741831643337 511.87672500000002 57.965225563909776 53.353964289535519 59.841358550335791 53.353964289535519 48.460696731604081 394.79256000000004 2007.5000000000002 99.500000000000014 49.850000000000009 15598.863500000001 60.944940476190482 196.27617000000004 43.288458885659303 38.422932636585777 37.482782369146015
decision_type=2 2 2 2 2 2 2 2 2 2 2 2 2 2 2 2 2 2 2 2 2 2 2 2 2 2 2 2 2 2
left_child=2 4 3 7 -2 6 21 8 9 14 -3 12 -12 -8 24 18 -17 25 19 27 -21 -6 23 -23 -1 -18 -9 28 -10 -30
right_child=1 10 -4 -5 5 -7 13 26 15 -11 11 -13 -14 -15 -16 16 17 -19 -20 20 -22 22 -24 -25 -26 -27 -28 -29 29 -31
leaf_value=-0.34499241535185948 0.056745804684572937 1.9681848274001881 -7.6189672090249392 -3.1375722790182254 0.59871231977361961 -0.019510612700946697 -0.41356627726038653 -0.17609653489163721 -1.2371686124690116 0.2856013219790498 -0.56199039938579742 5.0260928948666761 0.74798783931265689 0.38631075828181455 -0.0006789810760267301 0.60028415785427436 -0.28880634225274948 -1.0029390139656003 -2.2343471762685994 -0.67101199625275854 0.28593616310537018 0.21259515802865964 -0.057646899224977233 0.65984065530287817 -0.67853876238792177 0.035924298465576501 0.36229591028915353 -1.9317217233218842 0.41023273476228328 -0.71165617864196662
leaf_weight=49 77 936 523 212 103 23 24 25 168 39 20 88 21 30 51 22 25 100 104 46 22 239 36 36 87 23 30 70 21 48
leaf_count=49 77 936 523 212 103 23 24 25 168 39 20 88 21 30 51 22 25 100 104 46 22 239 36 36 87 23 30 70 21 48
internal_value=0.00118253 0.0372627 -0.0342042 -0.0270578 0.0213028 0.0176171 0.0198718 -0.0237634 -0.0254286 -0.0123894 0.0457746 0.029845 -0.00121951 -0.00740741 -0.0205882 -0.0299692 -0.0194118 -0.0290541 -0.0337161 -0.03 -0.0102941 0.02343 0.0191318 0.0223636 -0.0279412 -0.0104167 0.00272727 -0.0343648 -0.0301688 -0.00942029
internal_weight=3298 1633 1665 1142 568 491 468 930 875 226 1065 129 41 54 187 649 170 148 479 375 68 414 311 275 136 48 55 307 237 69
internal_count=3298 1633 1665 1142 568 491 468 930 875 226 1065 129 41 54 187 649 170 148 479 375 68 414 311 275 136 48 55 307 237 69
is_linear=0
shrinkage=0.05


Tree=27
num_leaves=31
num_cat=0
split_feature=23 23 6 23 24 6 6 4 23 6 24 6 24 6 24 6 24 24 12 6 23 21 12 24 6 4 24 6 24 23
split_gain=1608.86 90.0312 86.2926 35.9471 29.8861 24.6676 15.715 12.4204 11.6571 11.5587 11.0127 10.2668 8.6689 8.02185 22.8871 17.8173 7.84813 6.64868 22.8481 10.7374 8.33193 9.35653 9.15201 6.22435 12.1734 13.9296 12.2866 8.92978 8.81633 6.76148
threshold=542.91176500000006 642.85715000000016 71.901680645989117 471.06825500000008 62.92229616456509 1.5163245962254945 61.526284093939218 72767.37000000001 261.07611000000003 24.966833990677667 69.249690945328879 20.471464019851119 28.411314435723121 58.036262050832605 54.545454545454554 53.353964289535519 24.689082481573983 3.4621084924237717 1797.5000000000002 5.046569948361296 624.26330000000019 114.50000000000001 2118.8000000000006 10.148039171757302 18.481266105415695 36610.228500000005 25.019177661859469 33.805323041451565 41.277890466531453 511.87672500000002
decision_type=2 2 2 2 2 2 2 2 2 2 2 2 2 2 2 2 2 2 2 2 2 2 2 2 2 2 2 2 2 2
left_child=2 5 3 4 8 7 -6 -2 -1 17 -8 -3 -11 14 -10 -16 -13 18 -7 -19 21 -21 -22 29 25 -25 -26 -28 -29 -5
right_child=1 11 -4 23 6 9 10 -9 13 12 -12 16 -14 -15 15 -17 -18 19 -20 20 22 -23 -24 24 26 -27 27 28 -30 -31
leaf_value=-5.2220083463339542 0.50409289130984125 1.975266421045953 -7.2380188485736925 -0.27867758229536149 0.24007324481976441 0.6587522629610959 -0.9276569894420561 0.002159372442221752 -1.1986427818189698 -0.41047664180472054 -0.020728897266435811 0.68101856425851115 0.84898320216375966 -1.490611709558445 0.35283573562666676 -0.19200220726582418 3.6902319759779063 0.69043768294349661 -0.035559608151282875 0.34425369402536321 -0.093248294305470839 -0.0038649406135135679 0.78107568560249951 0.79493288159088427 -0.48150813890110555 -0.095410052695383746 0.046317492587556332 -1.1916632471088562 0.061611783678489476 -0.023100731821580213
leaf_weight=132 103 984 523 52 36 32 59 20 455 26 44 23 23 87 28 41 20 41 20 222 29 34 20 28 61 26 53 28 21 27
leaf_count=132 103 984 523 52 36 32 59 20 455 26 44 23 23 87 28 41 20 41 20 222 29 34 20 28 61 26 53 28 21 27
internal_value=0.00112189 0.0371634 -0.032716 -0.0252122 -0.0302721 0.0212281 -0.00899281 0.0410569 -0.034253 0.0157718 -0.018932 0.0460078 -0.00714286 -0.0313421 -0.0290076 -0.00217391 0.022093 0.018593 0.00192308 0.0210983 0.0178689 0.0214844 -0.00102041 -0.0101351 -0.00576037 0.0148148 -0.0125767 -0.00196078 -0.0173469 -0.0221519
internal_weight=3298 1597 1701 1178 882 570 139 123 743 447 103 1027 49 611 524 69 43 398 52 346 305 256 49 296 217 54 163 102 49 79
internal_count=3298 1597 1701 1178 882 570 139 123 743 447 103 1027 49 611 524 69 43 398 52 346 305 256 49 296 217 54 163 102 49 79
is_linear=0
shrinkage=0.05


Tree=28
num_leaves=31
num_cat=0
split_feature=23 23 6 23 24 6 6 23 24 24 23 23 6 24 4 6 24 6 6 24 24 6 1 24 1 24 6 24 23 6
split_gain=1539.64 96.3474 91.7261 32.3959 32.3211 30.3461 26.931 22.4899 21.4312 13.7307 15.3293 11.0965 10.6393 16.9437 10.0395 9.86797 22.0222 9.69865 9.41053 35.6656 9.1179 11.1755 8.44516 8.37945 7.36532 8.89128 12.7037 13.6673 8.97542 7.15869
threshold=539.52975000000004 642.85715000000016 71.901680645989117 471.06825500000008 56.557112068965523 53.353964289535519 5.046569948361296 599.8108850000001 5.2469635627530371 69.249690945328879 248.31423500000002 313.86902500000002 10.426864214561595 9.0961590961590986 1188.8497000000002 52.658500471126665 50.877710009738109 24.966833990677667 34.24707602339182 36.560468189304338 63.433205398043832 61.526284093939218 2.4350000000000005 26.307741831643337 291.00500000000005 16.458144052538518 24.156877605153472 27.146272172949008 511.87672500000002 1.5163245962254945
decision_type=2 2 2 2 2 2 2 2 2 2 2 2 2 2 2 2 2 2 2 2 2 2 2 2 2 2 2 2 2 2
left_child=2 6 3 4 11 -6 7 29 -8 10 -7 -1 -3 -14 -5 16 18 -10 19 22 21 -12 -13 -19 25 28 -27 -28 -16 -2
right_child=1 12 -4 14 5 9 8 -9 17 -11 20 15 13 -15 24 -17 -18 23 -20 -21 -22 -23 -24 -25 -26 26 27 -29 -30 -31
leaf_value=-3.5008043905857833 0.030841861810492335 1.7710122649778839 -6.8761179061450086 0.16210314860257996 0.55544722545039915 -2.7663576394295917 -0.15805228971453006 0.59190082253280141 0.23385581311605394 0.056536285523193897 -0.18240209690253267 -0.33233895304706496 -0.455991937418537 3.6492510158340963 -0.27001942187008016 -2.4191930885036115 0.15693238605423687 -0.38995280971448382 -1.3271566740161902 0.74127914302848696 0.049176425415647887 -1.1942197572958975 -1.1114429992946071 0.33567085050665924 0.10702158163570062 0.18116865808997887 -0.51124302079674921 -0.099741366935012371 -0.024729828737719117 -0.021834540622973009
leaf_weight=168 26 904 523 20 30 56 24 161 299 51 63 37 20 103 59 58 23 20 176 20 32 35 133 29 21 42 35 73 34 23
leaf_count=168 26 904 523 20 30 56 24 161 299 51 63 37 20 103 59 58 23 20 176 20 32 35 133 29 21 42 35 73 34 23
internal_value=0.001698 0.0366998 -0.0316459 -0.0238422 -0.0285714 -0.0140449 0.0204467 0.0347619 0.0123656 -0.0200422 -0.0263441 -0.034878 0.0459104 0.0321138 -0.00915493 -0.0307606 -0.027892 0.0155172 -0.0308743 -0.0231579 -0.0169231 -0.0244898 -0.0305882 -0.00510204 -0.0117424 -0.0141975 -0.00666667 -0.0157407 -0.0263441 0.00510204
internal_weight=3298 1609 1689 1166 882 267 582 210 372 237 186 615 1027 123 284 447 389 348 366 190 130 98 170 49 264 243 150 108 93 49
internal_count=3298 1609 1689 1166 882 267 582 210 372 237 186 615 1027 123 284 447 389 348 366 190 130 98 170 49 264 243 150 108 93 49
is_linear=0
shrinkage=0.05


Tree=29
num_leaves=31
num_cat=0
split_feature=23 23 23 1 6 24 23 23 24 6 6 24 6 24 4 4 6 24 6 21 6 2 12 24 24 6 6 24 23 2
split_gain=1438.93 134.461 95.3752 36.6786 32.5467 40.0385 26.673 22.2589 21.0315 33.8815 14.5212 14.8922 11.2827 13.3724 10.4225 10.2475 9.68612 16.2599 8.71435 8.25221 7.99873 7.77678 7.35089 6.83406 6.59734 11.4236 10.1053 8.78636 7.90918 6.81818
threshold=539.52975000000004 615.89973000000009 191.92489500000002 0.055000000000000007 5.046569948361296 4.2064582744348842 471.06825500000008 644.19573500000013 56.557112068965523 55.197692593719701 72.726476745389292 71.642302954875717 64.908603092984322 64.514710585225473 65406.25650000001 1188.8497000000002 52.658500471126665 50.877710009738109 14.098803607248822 98.000000000000014 61.526284093939218 0.095000000000000015 37520.30000000001 60.944940476190482 25.019177661859469 24.156877605153472 26.808647270274033 16.458144052538518 511.87672500000002 20.505000000000006
decision_type=2 2 2 2 2 2 2 2 2 2 2 2 2 2 2 2 2 2 2 2 2 2 2 2 2 2 2 2 2 2
left_child=2 3 -1 -2 -3 -6 8 18 16 -10 11 12 13 20 19 -8 17 21 -7 -5 23 -4 -21 -11 25 27 -26 28 -17 -28
right_child=1 4 6 14 5 7 15 -9 9 10 -12 -13 -14 -15 -16 24 -18 -19 -20 22 -22 -23 -24 -25 26 -27 29 -29 -30 -31
leaf_value=-7.5028611555826306 -0.026743981800922259 1.6824585999711759 -0.52527027443507568 0.22813544258378329 -0.31376431499438129 0.39383598103404438 0.15399799117245153 3.4667884650423901 0.29155278613484653 -0.23473979676921886 -2.1523461285886314 0.29447390931839695 -1.2044662656376055 0.075511357249720856 -0.020185143778530801 -0.25291314499911266 -2.3247769403761822 0.071666950682248404 -0.09000626846752198 -0.12334834715932744 -0.78954817665065491 -1.1500054005324658 0.13322267768112397 0.055999211759120732 0.42658970478535996 -0.45877572533656097 -0.40054747641631255 0.082442600598722049 -0.019906803243489438 0.044344572858491915
leaf_weight=558 28 923 35 257 35 53 20 197 37 41 63 22 52 26 33 67 82 31 29 31 29 408 23 21 20 24 55 38 40 20
leaf_count=558 28 923 35 257 35 53 20 197 37 41 63 22 52 26 33 67 82 31 29 31 29 408 23 21 20 24 55 38 40 20
internal_value=0.00112189 0.0349596 -0.0311131 0.00860215 0.042886 0.0289809 -0.0227675 0.0353047 -0.0272137 -0.016323 -0.0228346 -0.0159686 -0.0210059 -0.0123932 0.0130814 -0.00950704 -0.0329137 -0.0301688 0.0134146 0.0159164 -0.0214286 -0.0326185 -0.00185185 -0.0112903 -0.0121212 -0.0180473 -0.00157895 -0.0127586 -0.0200935 -0.01
internal_weight=3298 1609 1689 372 1237 314 1131 279 847 291 254 191 169 117 344 284 556 474 82 311 91 443 54 62 264 169 95 145 107 75
internal_count=3298 1609 1689 372 1237 314 1131 279 847 291 254 191 169 117 344 284 556 474 82 311 91 443 54 62 264 169 95 145 107 75
is_linear=0
shrinkage=0.05


Tree=30
num_leaves=31
num_cat=0
split_feature=23 23 6 1 23 24 6 23 24 4 23 4 10 1 6 6 1 6 24 6 6 24 6 24 14 2 24 6 24 6
split_gain=1359.49 141.208 96.3468 38.8573 28.8672 37.9896 24.8016 33.8886 19.5774 17.8596 14.0345 11.5731 10.5853 13.2131 10.0632 9.46289 11.006 8.74464 14.1453 16.2046 9.3187 26.7744 12.7928 21.1693 7.97787 7.68069 14.0061 7.68627 8.49334 7.2026
threshold=542.91176500000006 632.12970000000007 74.102720150106123 0.055000000000000007 471.06825500000008 60.944940476190482 4.0101370809814547 666.74935000000016 4.2064582744348842 36863.846000000012 264.54580000000004 8773.443500000003 778.00000000000011 2.3550000000000004 9.5377558318652191 14.318255776114549 1.3850000000000002 59.841358550335791 54.545454545454554 53.353964289535519 42.18970593411678 41.845380626603536 32.465418980570512 31.859847725906636 116.75000000000001 0.025000000000000005 4.485661978408511 26.319835717086665 17.179608585858592 9.1546472805078309
decision_type=2 2 2 2 2 2 2 2 2 2 2 2 2 2 2 2 2 2 2 2 2 2 2 2 2 2 2 2 2 2
left_child=2 3 4 -2 5 10 -3 8 -8 12 -1 15 24 -14 -10 -5 -17 18 20 -20 21 22 23 -12 -7 -13 -27 28 29 -28
right_child=1 6 -4 11 -6 9 7 -9 14 -11 17 25 13 -15 -16 16 -18 -19 19 -21 -22 -23 -24 -25 -26 26 27 -29 -30 -31
leaf_value=-4.408938228979344 -0.025406782710876999 1.5983356699726188 -6.7619800492500337 0.37002783152487384 -0.076280317829586872 0.039775231210241208 -0.26881697807000365 4.296221786678422 0.70182076273390526 -1.5430784269395852 -1.0258337043255836 0.09056515133279959 -0.89182996649500978 -0.01778333871078033 0.25602315225090139 -0.088072093139271612 0.77092632417218854 -2.1475602198552766 0.27697514682810437 -0.22300280693075936 -1.5825441993949996 0.14034462497755271 -1.325317281642846 0.21792627863001998 0.5210109249533289 -0.023341822682402837 0.37533628694545773 -0.15515526838929078 1.0554870044361053 -0.0034915276601793725
leaf_weight=131 28 837 493 98 296 46 40 184 45 22 131 35 30 82 39 24 32 45 25 49 143 35 118 35 20 35 61 30 28 81
leaf_count=131 28 837 493 98 296 46 40 184 45 22 131 35 30 82 39 24 32 45 25 49 143 35 118 35 20 35 61 30 28 81
internal_value=0.00115221 0.034283 -0.029953 0.0106195 -0.022351 -0.0267544 0.0436245 0.0314935 0.0112903 -0.0075 -0.0321629 0.0143868 -0.00224719 -0.0116071 0.025 0.0253247 0.00892857 -0.0288296 -0.0270522 -0.00675676 -0.030303 -0.0255486 -0.0306338 -0.0216867 0.0136364 0.00814815 0.00489362 0.01 0.0141176 0.00915493
internal_weight=3298 1597 1701 452 1208 912 1145 308 124 200 712 424 178 112 84 154 56 581 536 74 462 319 284 166 66 270 235 200 170 142
internal_count=3298 1597 1701 452 1208 912 1145 308 124 200 712 424 178 112 84 154 56 581 536 74 462 319 284 166 66 270 235 200 170 142
is_linear=0
shrinkage=0.05


Tree=31
num_leaves=31
num_cat=0
split_feature=23 23 6 1 6 1 23 24 10 23 23 4 6 24 22 1 6 24 6 24 6 6 24 6 24 24 6 7 24 14
split_gain=1322.76 147.769 98.9658 37.8373 26.4107 32.267 26.0924 37.4137 19.021 16.7651 14.8585 13.0237 15.4096 13.6446 11.9584 18.3909 10.5683 14.1715 9.50627 18.2593 18.6667 10.9945 16.3978 9.87031 20.8812 9.47613 12.2482 12.8691 9.4542 8.61335
threshold=539.52975000000004 632.12970000000007 74.759415193855844 0.055000000000000007 4.0101370809814547 4.0450000000000008 464.57918000000006 60.944940476190482 778.00000000000011 658.58185000000014 264.54580000000004 65406.25650000001 1.3949026033476539 3.9503852960965564 6.5000000000000009 2.3550000000000004 17.740394805516861 19.111278387452433 58.403489192849939 52.816628273235871 52.184993939796449 46.537003602001313 45.368782161235004 32.465418980570512 31.859847725906636 12.875293351700771 7.789112535443631 35.000000000000007 3.8161724378481408 116.75000000000001
decision_type=2 2 2 2 2 2 2 2 2 2 2 2 2 2 2 2 2 2 2 2 2 2 2 2 2 2 2 2 2 2
left_child=2 3 6 -2 -3 28 7 10 29 -7 -1 12 -5 -14 15 -10 25 -18 19 21 -21 22 23 24 -12 26 -15 -28 -6 -9
right_child=1 4 -4 11 5 9 -8 8 14 -11 18 -13 13 16 -16 -17 17 -19 -20 20 -22 -23 -24 -25 -26 -27 27 -29 -30 -31
leaf_value=-4.1876264702292616 -0.024136443575332581 1.5184188864739896 -6.505278332248956 0.38032242292095192 -0.49009070063827664 0.3600563646007629 -0.088077495106389847 0.037786469649729787 -0.74011841088841956 3.8294482797750962 -1.1398283306167003 -0.018008795455483551 -0.034030622910751165 0.52634879672044121 -0.97807097816081601 0.027415836169307539 -0.13916988066439445 0.55625909591455525 -1.6718230039077455 0.23507778030817691 -0.21331335714310884 -1.7023637203728754 0.026935994140521304 -1.271892458544545 0.2070299646985177 0.51781038809344293 -0.12646841278428839 0.24737089645740298 0.50710678953443 0.46597430767672848
leaf_weight=132 28 837 483 36 26 60 308 48 33 179 118 33 21 64 34 72 37 62 62 28 56 69 39 153 33 80 45 58 43 21
leaf_count=132 28 837 483 36 26 60 308 48 33 179 118 33 21 64 34 72 37 62 62 28 56 69 39 153 33 80 45 58 43 21
internal_value=0.0012735 0.0337166 -0.0296329 0.00991379 0.0433624 0.0308442 -0.0219735 -0.0262806 -0.00769231 0.0395397 -0.0318841 0.0135321 0.016005 0.0129428 -0.0183453 -0.01 0.0153179 0.00151515 -0.0283154 -0.0260081 -0.0047619 -0.0303398 -0.0266764 -0.0305921 -0.0215232 0.0208502 0.0140719 0.00339806 0.000724638 0.0137681
internal_weight=3298 1609 1689 464 1145 308 1206 898 208 239 690 436 403 367 139 105 346 99 558 496 84 412 343 304 151 247 167 103 69 69
internal_count=3298 1609 1689 464 1145 308 1206 898 208 239 690 436 403 367 139 105 346 99 558 496 84 412 343 304 151 247 167 103 69 69
is_linear=0
shrinkage=0.05


Tree=32
num_leaves=31
num_cat=0
split_feature=23 23 6 1 23 24 6 6 24 23 14 24 23 6 24 4 23 6 6 5 23 6 24 24 6 6 24 6 6 24
split_gain=1252.28 141.965 100.816 36.9738 27.083 38.4385 25.1221 24.2374 16.6018 16.0589 12.8448 11.3754 12.8281 10.7201 17.0667 10.1744 10.0537 25.069 9.6686 10.5645 8.59885 7.58108 15.8685 10.5531 16.9687 15.674 16.2426 9.17472 7.5167 20.6567
threshold=539.52975000000004 632.12970000000007 74.759415193855844 0.055000000000000007 445.55826500000006 56.557112068965523 51.631923311016436 18.481266105415695 73.982749318934751 205.49067000000002 874.50000000000011 24.689082481573983 676.77512000000013 64.908603092984322 62.92229616456509 8773.443500000003 649.99997000000019 5.046569948361296 14.318255776114549 1.0350000000000004 275.54736000000008 32.88821516810264 41.277890466531453 25.019177661859469 25.478053106348117 24.156877605153472 17.661510101366087 19.574200503054261 52.658500471126665 50.877710009738109
decision_type=2 2 2 2 2 2 2 2 2 2 2 2 2 2 2 2 2 2 2 2 2 2 2 2 2 2 2 2 2 2
left_child=2 3 4 -2 5 20 -7 16 9 -8 13 12 -9 14 -11 18 17 -3 -5 -20 -1 23 -23 25 -25 26 -6 -28 29 -22
right_child=1 7 -4 15 21 6 8 11 -10 10 -12 -13 -14 -15 -16 -17 -18 -19 19 -21 28 22 -24 24 -26 -27 27 -29 -30 -31
leaf_value=-3.9773802994166858 -0.022929621396565382 0.50042651574304109 -6.1800144156365082 0.33218344761918389 -0.083255583844993458 0.54607759861247307 -3.6032675911028216 -0.37060493024472979 0.21283244088140663 -0.2435987708350254 -0.85417725975850667 2.7436348998125086 1.4155695721196027 -0.87753484620607702 0.11186544967859079 0.055231817633000446 1.9120578932080208 -0.095551107820566028 -0.071342250208027744 0.33426096504865654 -0.99243986124382533 -0.97143023725061406 0.06951892484518965 0.99363140316945087 -0.037791944613506705 -0.44583092406658409 0.74247804206355861 -0.23434084235243235 -1.769012089403907 0.11554306503817316
leaf_weight=117 28 186 483 98 131 21 40 21 39 80 33 22 20 52 40 280 858 38 21 37 308 72 31 23 56 24 23 20 72 24
leaf_count=117 28 186 483 98 131 21 40 21 39 80 33 22 20 52 40 280 858 38 21 37 308 72 31 23 56 24 23 20 72 24
internal_value=0.00103093 0.0325979 -0.0290409 0.00926724 -0.0213101 -0.0263923 -0.0122951 0.0420524 -0.0161972 -0.0210204 -0.0153659 0.0119048 -0.00365854 -0.00988372 -0.00166667 0.012844 0.0438078 0.034375 0.0230769 0.00689655 -0.0346449 -0.0102632 -0.0218447 -0.00595668 0.00949367 -0.0121212 -0.00689655 0.0197674 -0.0311881 -0.028012
internal_weight=3298 1609 1689 464 1206 826 305 1145 284 245 205 63 41 172 120 436 1082 224 156 58 521 380 103 277 79 198 174 43 404 332
internal_count=3298 1609 1689 464 1206 826 305 1145 284 245 205 63 41 172 120 436 1082 224 156 58 521 380 103 277 79 198 174 43 404 332
is_linear=0
shrinkage=0.05


Tree=33
num_leaves=31
num_cat=0
split_feature=23 23 23 6 23 5 24 6 24 6 24 6 24 6 24 24 6 6 4 24 6 1 23 6 24 6 10 0 23 6
split_gain=1209.03 168.169 74.4949 42.3366 36.8933 23.4243 17.524 37.2354 16.9332 16.1547 21.6175 36.2658 14.2145 12.4365 21.2209 14.1326 13.282 12.4072 14.9493 13.6488 25.0684 13.8102 12.1739 13.917 13.2025 10.4334 13.566 9.33637 8.93096 8.71857
threshold=607.80653000000018 486.96064000000007 161.28201000000004 3.2509333123365756 666.74935000000016 0.055000000000000007 52.816628273235871 49.34281626759504 2.714714876738642 46.183615146463445 37.296461370088984 35.679504460394085 45.368782161235004 64.908603092984322 62.92229616456509 69.249690945328879 72.726476745389292 42.18970593411678 21300.475000000002 29.177047537401425 21.32646941223511 21.035000000000004 371.96556000000004 31.762712785714935 29.428104575163406 5.046569948361296 1093.5000000000002 2016.5000000000002 362.51526000000007 24.156877605153472
decision_type=2 2 2 2 2 2 2 2 2 2 2 2 2 2 2 2 2 2 2 2 2 2 2 2 2 2 2 2 2 2
left_child=1 2 -1 -2 8 -3 9 -8 -5 10 22 -12 -13 14 28 -15 -17 18 19 20 -7 -22 -4 24 -24 -10 -27 -20 -9 -6
right_child=3 5 6 4 29 17 7 13 25 -11 11 12 -14 15 -16 16 -18 -19 27 -21 21 -23 23 -25 -26 26 -28 -29 -30 -31
leaf_value=-7.2856192742309034 1.3468950474898862 -0.02178314032673825 -2.3120490808143646 -0.70109817740827796 4.5011291027218991 0.13280628082490295 0.76263286196620472 -0.51990888313671635 0.44832315791450417 -2.0183470022241381 0.9375281709512493 -0.86095129267669679 0.051029519261294357 -1.8285824933256991 0.098219428972657855 0.11777122785029236 -0.59615190597377754 -2.554097809831001 0.0010540582566562762 0.95724482611103667 -0.37441748625863913 0.15813083494413577 -0.71965846891262975 -0.87371517171573609 0.09413223861864424 -0.020259379985446913 0.68500479221932553 -0.041411350261830654 0.020799622089751325 1.2040288759617539
leaf_weight=474 832 59 115 20 171 192 23 117 62 107 22 75 36 74 55 37 86 20 139 31 56 22 98 77 32 94 72 53 25 22
leaf_count=474 832 59 115 20 171 192 23 117 62 107 22 75 36 74 55 37 86 20 139 31 56 22 98 77 32 94 72 53 25 22
internal_value=0.00121286 -0.0227901 -0.0318307 0.0393951 0.0268707 0.000174825 -0.023953 -0.0161871 0.0141129 -0.0297153 -0.0256044 -0.00864662 -0.0202703 -0.019797 -0.0109137 -0.0286802 -0.0182927 0.00360624 0.00517241 0.0121262 0.00851852 -0.0153846 -0.0326087 -0.0253623 -0.0153846 0.0179825 0.0114458 -0.00572917 -0.0211268 0.0432642
internal_weight=3298 2025 1453 1273 441 572 979 417 248 562 455 133 111 394 197 197 123 513 493 301 270 78 322 207 130 228 166 192 142 193
internal_count=3298 2025 1453 1273 441 572 979 417 248 562 455 133 111 394 197 197 123 513 493 301 270 78 322 207 130 228 166 192 142 193
is_linear=0
shrinkage=0.05


Tree=34
num_leaves=31
num_cat=0
split_feature=23 23 23 6 23 24 6 5 6 24 23 24 6 24 23 4 24 6 6 24 6 0 4 13 6 24 1 14 24 6
split_gain=1113.42 165.94 63.1968 44.5866 36.0375 23.2158 20.9474 18.6023 30.4589 23.0778 17.4675 17.1904 35.7877 17.1055 15.4093 12.6888 15.1926 16.5814 11.9987 11.4752 13.546 16.0607 11.4693 11.2631 11.2395 18.369 11.1497 10.2512 9.1499 8.45306
threshold=607.80653000000018 442.84126500000008 141.68543500000001 4.1520531397261076 668.87537000000009 33.57403545359751 34.24707602339182 0.055000000000000007 25.478053106348117 23.348405834128602 632.12970000000007 54.908454424973357 58.403489192849939 4.2064582744348842 508.64570500000008 36863.846000000012 62.92229616456509 72.726476745389292 50.759387756826897 31.288648350955736 48.348009606287768 2009.5000000000002 65406.25650000001 30.200000000000003 41.72057917436846 41.845380626603536 4.0450000000000008 614.50000000000011 73.018771331058034 29.803321694890837
decision_type=2 2 2 2 2 2 2 2 2 2 2 2 2 2 2 2 2 2 2 2 2 2 2 2 2 2 2 2 2 2
left_child=1 2 -1 10 13 -4 -7 -3 9 14 -2 24 18 23 -9 16 -14 28 -13 29 21 -21 -16 -5 25 -8 -6 -15 -18 -10
right_child=3 7 5 4 26 6 11 8 19 -11 -12 12 15 27 22 -17 17 -19 -20 20 -22 -23 -24 -25 -26 -27 -28 -29 -30 -31
leaf_value=-7.1667173960601307 0.69790353995447563 -0.020693983310400201 -1.8467674510118002 -0.41312047078356501 1.1020764905700673 0.69211661930482227 -0.8350242880910671 -0.17811168249999698 -0.062153230174222078 0.81410421176871073 1.2795502951153936 0.85642714564067723 -1.1338695195337209 0.40396648987843381 0.099573698974774069 -1.0721826746628296 -0.27036845518019564 -0.6554796030913792 0.0048719276752706266 -0.34303574411395066 -2.5764433941453024 0.16164070834651767 -0.016762376881280263 0.10328713905267649 -1.5203270671902829 0.11906057854073993 4.3880019688748693 -0.055789417271230948 0.28234853863631243 -1.1657752328449562
leaf_weight=426 30 59 167 23 21 30 46 78 52 41 843 20 77 159 292 42 71 115 74 35 22 60 46 20 173 30 151 26 26 43
leaf_count=426 30 59 167 23 21 30 46 78 52 41 843 20 77 159 292 42 71 115 74 35 22 60 46 20 173 30 151 26 26 43
internal_value=0.00118253 -0.0218519 -0.0325752 0.037824 0.024 -0.0248565 -0.0208807 -0.00274725 -0.000373692 0.00689278 0.0441581 -0.0227003 -0.0165882 0.0109649 0.00336538 -0.0243202 -0.0205882 -0.0136792 0.0106383 -0.0160377 -0.00555556 0.00263158 0.00798817 -0.0174419 -0.0331325 -0.0171053 0.0412791 0.0175676 0.00154639 -0.0289474
